svm_type c_svc
kernel_type rbf
gamma 9.06019e-06
nr_class 4
total_sv 5377
rho 2.76326 -6.05135 4.13061 -4.03069 0.0904645 5.57859
label 2 3 0 1
probA -4.09264 -4.27339 -4.46854 -4.89396 -4.72542 -4.94619
probB 0.417967 -0.159639 0.283868 -0.469877 -0.108296 0.239053
nr_sv 1748 890 1439 1300
SV
1834.404862907804 1009.977737083831 0 3062:1 10333:1 11279:1 12498:1 13183:1 13426:1 14099:1 17473:1 18941:1 19702:1 19969:1 20736:1 23518:1 23520:1 23550:1 23552:1 23553:1 23555:1 23557:1 26295:1 33353:1 33997:1 36501:1 40199:1 43041:1 44494:1 47475:1 47525:1 47653:1 47845:1 47901:1 47963:1 50059:1 51846:1 57315:1 59973:1 65051:1 66125:1 71920:1 73792:1 77977:1 78006:1 78052:1 78070:1 78081:1 78125:1 78152:1 78181:1 78233:1 78624:1 78848:1 78954:1 79380:1 79703:1 80087:1 80424:1 81020:1 81677:1 82207:1 83723:1 84715:1 85788:1 86430:1 88930:1 92657:1 95544:1 99052:1 
209.9494496927391 0 80.27768938675918 8474:1 10331:1 11279:1 13183:1 13426:1 15134:1 16184:1 17473:1 19702:1 19969:1 21948:1 23283:1 23516:1 23518:1 23521:1 23543:1 23548:1 23552:1 23554:1 23555:1 31075:1 33356:1 35856:1 40200:1 41855:1 44489:1 44515:1 44808:1 45602:1 47478:1 47596:1 47664:1 47846:1 47953:1 47989:1 49557:1 53005:1 54380:1 56764:1 61228:1 62929:1 64302:1 68173:1 69186:1 70817:1 76531:1 77582:1 77980:1 78018:1 78042:1 78070:1 78082:1 78124:1 78159:1 78184:1 78343:1 78561:1 78849:1 78968:1 79355:1 79805:1 80122:1 80534:1 80838:1 81691:1 82241:1 83604:1 85178:1 85786:1 85791:1 88295:1 92658:1 94307:1 
199.6647643261314 1779.91714218115 0 1:1 1991:1 2959:1 7617:1 9804:1 12988:1 13876:1 15755:1 19490:1 20490:1 22875:1 23518:1 23520:1 23558:1 25071:1 26144:1 30744:1 32696:1 33355:1 35130:1 36346:1 41275:1 43794:1 44489:1 44508:1 44987:1 45407:1 45952:1 46588:1 47321:1 47477:1 47593:1 47653:1 47715:1 47879:1 47919:1 48022:1 49172:1 49932:1 51629:1 52608:1 53576:1 56194:1 57179:1 59653:1 60821:1 61989:1 64758:1 65173:1 66030:1 67395:1 68086:1 71220:1 71695:1 75423:1 76609:1 77988:1 78017:1 78050:1 78070:1 78097:1 78125:1 78155:1 78192:1 78326:1 78610:1 78864:1 79100:1 79383:1 79733:1 80232:1 80517:1 80985:1 81823:1 82780:1 83744:1 84851:1 85790:1 87550:1 88762:1 93766:1 96296:1 109767:1 
0 896.0136754959115 268.71580628049 494:1 2349:1 7196:1 9815:1 12705:1 12988:1 13876:1 15755:1 19117:1 19490:1 20490:1 22875:1 23516:1 23518:1 24006:1 25765:1 30364:1 32709:1 33923:1 35859:1 40860:1 41434:1 43808:1 44491:1 44698:1 44935:1 45355:1 45828:1 46089:1 47090:1 47513:1 47550:1 47600:1 47737:1 47879:1 47953:1 48022:1 48459:1 49403:1 51543:1 54353:1 55260:1 56535:1 59511:1 62904:1 63766:1 64227:1 66125:1 69062:1 69868:1 74309:1 77931:1 77994:1 78018:1 78054:1 78070:1 78086:1 78141:1 78158:1 78197:1 78353:1 78676:1 78853:1 78997:1 79600:1 79772:1 80285:1 80543:1 81720:1 82359:1 84434:1 85030:1 86363:1 88298:1 93308:1 94136:1 96311:1 106518:1 107674:1 
242.3817471665999 532.9101142050553 74.33408141363651 9134:1 11445:1 17357:1 23512:1 23518:1 23521:1 32194:1 43010:1 44491:1 44878:1 45691:1 47730:1 47879:1 47953:1 47988:1 51425:1 53800:1 54286:1 62296:1 62827:1 65575:1 67269:1 68098:1 69248:1 73538:1 75405:1 76797:1 77867:1 78070:1 78093:1 78121:1 78159:1 78860:1 79068:1 79308:1 79805:1 81791:1 82680:1 83388:1 85178:1 95514:1 
480.6668878820485 1665.359545767665 30.24067658528167 534:1 2270:1 6947:1 8679:1 10101:1 11445:1 14517:1 17357:1 21216:1 23511:1 23517:1 23518:1 24060:1 25622:1 30160:1 31434:1 32225:1 33984:1 35704:1 40647:1 42218:1 43183:1 44491:1 44698:1 44935:1 45481:1 45828:1 47090:1 47513:1 47593:1 47621:1 47737:1 47879:1 47953:1 48022:1 48505:1 49493:1 50157:1 50921:1 52186:1 54652:1 55306:1 56681:1 58553:1 60269:1 63267:1 63713:1 64228:1 66480:1 67153:1 69229:1 69911:1 71263:1 74431:1 74909:1 77091:1 77984:1 78022:1 78053:1 78070:1 78097:1 78121:1 78156:1 78188:1 78377:1 78664:1 78864:1 79097:1 79305:1 79742:1 80164:1 80568:1 81207:1 81820:1 82749:1 83360:1 84886:1 86417:1 88135:1 93037:1 94683:1 96710:1 106271:1 108108:1 110071:1 
0 0 48.95779741772239 521:1 1488:1 4506:1 7673:1 10051:1 10903:1 14824:1 21632:1 23242:1 23498:1 23516:1 23518:1 23541:1 23608:1 24072:1 27822:1 30816:1 33019:1 33521:1 34051:1 38052:1 41351:1 44131:1 44489:1 44690:1 44987:1 45353:1 45945:1 47305:1 47513:1 47550:1 47715:1 47879:1 47895:1 48022:1 48490:1 49482:1 50894:1 52655:1 54600:1 56665:1 58507:1 60874:1 63197:1 63867:1 64309:1 66472:1 67315:1 69232:1 70492:1 73159:1 75482:1 77354:1 77994:1 78015:1 78070:1 78086:1 78141:1 78158:1 78197:1 78310:1 78853:1 78997:1 79600:1 79758:1 80285:1 80501:1 81720:1 82359:1 84426:1 84945:1 86396:1 88110:1 90510:1 93834:1 96636:1 110012:1 
0 584.0605557169241 0 64:1 6098:1 6868:1 9764:1 12705:1 14824:1 19117:1 21632:1 23498:1 23500:1 23515:1 23518:1 23520:1 23867:1 29350:1 30033:1 32660:1 33789:1 39580:1 40511:1 43754:1 44489:1 44626:1 44987:1 45949:1 47331:1 47492:1 47715:1 47879:1 47912:1 48022:1 48344:1 51615:1 52126:1 53530:1 54308:1 55121:1 59625:1 63755:1 65862:1 67155:1 67870:1 69017:1 69761:1 74286:1 77985:1 78070:1 78071:1 78125:1 78167:1 78189:1 78838:1 78880:1 79393:1 79876:1 80174:1 81603:1 81966:1 83785:1 85392:1 86213:1 92038:1 92954:1 96250:1 
1039.602187063906 0 283.7721835939227 7532:1 7801:1 11022:1 11157:1 15248:1 17161:1 17327:1 22151:1 23493:1 23518:1 23520:1 23542:1 30677:1 31046:1 41207:1 41825:1 44489:1 47879:1 47909:1 47970:1 50578:1 52548:1 53860:1 58024:1 60740:1 67246:1 69087:1 75362:1 77432:1 78070:1 78089:1 78125:1 78176:1 78856:1 79029:1 79401:1 79997:1 81752:1 82534:1 83831:1 85720:1 93671:1 94278:1 
0 274.6196594770192 1265.850346074507 7532:1 12411:1 15248:1 18848:1 22151:1 23518:1 23542:1 23556:1 30677:1 41209:1 41364:1 44489:1 44987:1 45935:1 47282:1 47715:1 47879:1 47883:1 47970:1 51814:1 52548:1 53928:1 59918:1 60740:1 66154:1 67246:1 69087:1 74416:1 75362:1 77432:1 78070:1 78101:1 78120:1 78176:1 78868:1 79148:1 79298:1 80006:1 81871:1 82947:1 93671:1 93849:1 
0 2000 0 319:1 1953:1 2795:1 10659:1 10903:1 13426:1 13631:1 16715:1 19969:1 20218:1 23242:1 23518:1 23533:1 23555:1 23815:1 24946:1 25922:1 33732:1 34999:1 36132:1 40213:1 44492:1 44705:1 44906:1 45488:1 46649:1 47513:1 47593:1 47653:1 47744:1 47850:1 48311:1 49104:1 51203:1 55082:1 56093:1 58996:1 63660:1 64101:1 66316:1 69513:1 70662:1 73903:1 77987:1 78017:1 78049:1 78070:1 78080:1 78191:1 78325:1 78594:1 78847:1 80202:1 80516:1 80909:1 85781:1 86157:1 87424:1 88542:1 92669:1 99972:1 101295:1 
354.1327644585484 233.797503560909 191.730630602941 17:1 10328:1 10331:1 10333:1 10334:1 10458:1 11033:1 13941:1 15677:1 16497:1 17179:1 20563:1 22666:1 23493:1 23512:1 23515:1 23518:1 23520:1 23521:1 23545:1 23550:1 23551:1 23555:1 23623:1 32860:1 33542:1 40199:1 43974:1 44491:1 44611:1 47490:1 47671:1 47845:1 47901:1 47974:1 48147:1 51814:1 53687:1 54494:1 54918:1 59918:1 62158:1 63059:1 63870:1 65574:1 68094:1 69171:1 69782:1 74258:1 75826:1 77578:1 77987:1 78070:1 78081:1 78125:1 78156:1 78191:1 78848:1 78954:1 79384:1 79742:1 80203:1 81677:1 82208:1 83745:1 84889:1 85767:1 85965:1 92657:1 96480:1 
2000 1371.86969213996 166.6541752417699 10328:1 10329:1 10330:1 10332:1 10333:1 10334:1 10879:1 11706:1 12411:1 14412:1 15959:1 16990:1 17978:1 18848:1 21106:1 23012:1 23515:1 23516:1 23517:1 23518:1 23519:1 23520:1 23521:1 23539:1 23545:1 23546:1 23547:1 23549:1 23550:1 23551:1 31749:1 32489:1 42545:1 43580:1 44489:1 47490:1 47533:1 47613:1 47659:1 47859:1 47901:1 47974:1 48136:1 52385:1 53508:1 54173:1 54903:1 62676:1 63597:1 68320:1 68855:1 77103:1 77987:1 78017:1 78052:1 78070:1 78089:1 78131:1 78158:1 78191:1 78325:1 78633:1 78856:1 79035:1 79539:1 79785:1 80208:1 80516:1 81071:1 81758:1 82609:1 95024:1 96067:1 
246.2939345461081 2000 1467.262162309074 1470:1 11494:1 15691:1 16015:1 17737:1 22682:1 23070:1 23482:1 23516:1 23518:1 23522:1 23524:1 23533:1 23552:1 23554:1 23555:1 25572:1 33368:1 35651:1 35868:1 40213:1 44491:1 44565:1 44926:1 45328:1 46196:1 47482:1 47550:1 47605:1 47737:1 47850:1 49464:1 51229:1 56637:1 59033:1 64642:1 66117:1 71449:1 77978:1 78018:1 78043:1 78070:1 78080:1 78182:1 78341:1 78570:1 78847:1 80100:1 80532:1 80853:1 85802:1 88080:1 88306:1 92669:1 
146.7400743454143 274.769772407953 1699.551243472489 252:1 11494:1 14560:1 17737:1 21278:1 23517:1 23518:1 23526:1 23555:1 23746:1 24428:1 26494:1 33654:1 34471:1 36710:1 40209:1 44493:1 44707:1 45489:1 46439:1 47513:1 47593:1 47619:1 47749:1 47849:1 48243:1 48766:1 50194:1 51229:1 55017:1 55637:1 57486:1 59033:1 63804:1 64542:1 65347:1 66065:1 69610:1 70589:1 72133:1 74584:1 77984:1 78017:1 78052:1 78070:1 78078:1 78188:1 78323:1 78633:1 78845:1 80148:1 80514:1 81069:1 85771:1 86082:1 86878:1 89149:1 92668:1 
0 818.954062748592 0 1:1 992:1 7598:1 8952:1 11678:1 12705:1 13041:1 15134:1 15221:1 15753:1 17949:1 19117:1 19554:1 21948:1 22118:1 22756:1 23482:1 23487:1 23516:1 23518:1 23521:1 23558:1 24834:1 30743:1 31916:1 33355:1 34882:1 41274:1 42713:1 44491:1 44509:1 44935:1 45308:1 45828:1 47077:1 47477:1 47550:1 47737:1 47879:1 47953:1 47983:1 49031:1 50665:1 52597:1 53607:1 54170:1 56003:1 58186:1 60802:1 62023:1 62672:1 63958:1 66798:1 67305:1 67780:1 71011:1 72488:1 75371:1 76573:1 77988:1 78018:1 78070:1 78089:1 78132:1 78159:1 78192:1 78349:1 78856:1 79036:1 79467:1 79805:1 80228:1 80540:1 81759:1 82562:1 84027:1 85187:1 85790:1 87303:1 93745:1 95183:1 99868:1 106947:1 
523.6377494249089 315.3786285917336 686.1320429971616 487:1 2253:1 7681:1 8504:1 10233:1 11535:1 12062:1 15319:1 15506:1 17789:1 18412:1 22233:1 22453:1 23474:1 23518:1 24010:1 25596:1 30823:1 31132:1 33244:1 33929:1 35677:1 41358:1 41909:1 44368:1 44489:1 44690:1 44987:1 45474:1 45962:1 46636:1 47368:1 47513:1 47593:1 47653:1 47715:1 47879:1 47953:1 48022:1 48454:1 49480:1 49884:1 51541:1 52659:1 53025:1 56660:1 60879:1 61269:1 63833:1 64224:1 65436:1 66330:1 67511:1 68239:1 71260:1 71875:1 72604:1 75254:1 76108:1 77974:1 78014:1 78062:1 78070:1 78088:1 78131:1 78165:1 78178:1 78286:1 78750:1 78855:1 79012:1 79545:1 79867:1 80038:1 80477:1 81413:1 81735:1 82417:1 84275:1 85358:1 86353:1 88105:1 93843:1 94363:1 96881:1 100573:1 107859:1 
0 794.5568380729304 0 5467:1 7503:1 10253:1 12705:1 13014:1 15134:1 15929:1 19117:1 19525:1 21948:1 22978:1 23493:1 23498:1 23518:1 23520:1 28764:1 30654:1 33259:1 38994:1 41179:1 44388:1 44491:1 44935:1 45823:1 47070:1 47737:1 47879:1 47912:1 48022:1 51329:1 52528:1 53270:1 54757:1 59219:1 60711:1 61600:1 63431:1 65641:1 67143:1 68039:1 69240:1 73242:1 75352:1 76295:1 77586:1 78070:1 78097:1 78125:1 78158:1 78864:1 79100:1 79386:1 79777:1 81823:1 82782:1 83760:1 85055:1 91452:1 93640:1 96902:1 
1321.247956624793 0 0 487:1 2269:1 23474:1 23518:1 23521:1 23555:1 24010:1 25618:1 33929:1 35700:1 35921:1 40208:1 43316:1 44492:1 44705:1 44904:1 45488:1 45717:1 46649:1 47513:1 47593:1 47653:1 47744:1 47847:1 47953:1 48023:1 48454:1 50346:1 51054:1 53531:1 54415:1 57723:1 58762:1 61913:1 62962:1 63833:1 65395:1 65919:1 68906:1 71816:1 72833:1 77773:1 77974:1 78024:1 78069:1 78070:1 78074:1 78128:1 78172:1 78178:1 78393:1 78833:1 78841:1 78907:1 79435:1 79974:1 80030:1 80584:1 81630:1 86353:1 88131:1 89405:1 92666:1 96370:1 100672:1 
2000 398.0105872294387 1870.648313639175 487:1 1834:1 3478:1 7119:1 8679:1 10212:1 12294:1 14871:1 15049:1 15053:1 16262:1 18711:1 21701:1 21913:1 21917:1 23375:1 23474:1 23475:1 23480:1 23518:1 24010:1 24643:1 26837:1 30289:1 31434:1 33221:1 33929:1 34683:1 37066:1 40780:1 42218:1 44345:1 44489:1 44690:1 44987:1 45474:1 45962:1 46636:1 47368:1 47513:1 47593:1 47653:1 47715:1 47879:1 47953:1 48022:1 48454:1 48920:1 50424:1 52289:1 54734:1 57813:1 60419:1 63833:1 64189:1 65186:1 66737:1 67311:1 69384:1 71906:1 74343:1 74996:1 77974:1 78014:1 78061:1 78070:1 78089:1 78121:1 78143:1 78178:1 78286:1 78736:1 78856:1 79025:1 79300:1 79631:1 80039:1 80477:1 81389:1 81748:1 82467:1 83350:1 84549:1 85778:1 86353:1 87099:1 89524:1 93225:1 94683:1 96855:1 99673:1 108110:1 
2000 1507.238334771846 2000 487:1 1603:1 8840:1 10903:1 13472:1 14358:1 16775:1 20024:1 21040:1 23474:1 23497:1 23517:1 23518:1 23555:1 23557:1 24010:1 24163:1 31743:1 33929:1 34192:1 40199:1 42539:1 43041:1 44489:1 44690:1 44968:1 45474:1 45868:1 46350:1 47146:1 47513:1 47593:1 47626:1 47715:1 47845:1 47953:1 47963:1 48454:1 48631:1 50070:1 50788:1 53504:1 57327:1 61878:1 63833:1 63990:1 65428:1 66839:1 67954:1 71560:1 76234:1 77974:1 78004:1 78053:1 78070:1 78081:1 78124:1 78152:1 78178:1 78208:1 78650:1 78848:1 78953:1 79349:1 80034:1 80399:1 81144:1 81676:1 82202:1 86353:1 86604:1 92657:1 95017:1 95544:1 99268:1 
1984.769532202804 2000 2000 10331:1 23518:1 23548:1 44489:1 47664:1 51734:1 78070:1 
2000 2000 2000 148:1 3038:1 6868:1 9060:1 9759:1 10903:1 12574:1 19026:1 19543:1 23479:1 23518:1 23616:1 25879:1 30033:1 32068:1 32645:1 33536:1 36088:1 40511:1 42877:1 43740:1 44489:1 44690:1 44987:1 45474:1 45962:1 46636:1 47368:1 47513:1 47593:1 47653:1 47715:1 47879:1 47953:1 48022:1 48143:1 48871:1 52126:1 53704:1 54300:1 54912:1 55780:1 62838:1 63632:1 64294:1 66204:1 67155:1 68462:1 68964:1 69903:1 71277:1 73607:1 77478:1 77984:1 78027:1 78064:1 78070:1 78071:1 78108:1 78158:1 78188:1 78420:1 78781:1 78838:1 78874:1 79231:1 79763:1 80143:1 80611:1 81468:1 81597:1 81936:1 83174:1 85959:1 88883:1 92954:1 95370:1 96242:1 106136:1 108630:1 109703:1 
1825.907385320371 908.1009259901859 874.6592688296585 6816:1 8234:1 9705:1 12184:1 14382:1 15257:1 15410:1 18557:1 21073:1 22161:1 22337:1 23507:1 23518:1 23519:1 23520:1 23522:1 23552:1 30528:1 31957:1 32574:1 33368:1 41042:1 42757:1 43666:1 44489:1 44563:1 44980:1 45926:1 47272:1 47482:1 47715:1 47860:1 47912:1 48022:1 51274:1 52461:1 53633:1 54239:1 60612:1 62066:1 62765:1 66146:1 67445:1 67939:1 69350:1 73796:1 74860:1 75942:1 77803:1 77978:1 78070:1 78089:1 78125:1 78167:1 78182:1 78856:1 79029:1 79393:1 79877:1 80106:1 81752:1 82528:1 83786:1 85397:1 85802:1 93503:1 95249:1 96159:1 106723:1 
0 0 1699.888109017147 6985:1 8406:1 11396:1 17616:1 23518:1 23522:1 23528:1 23542:1 23552:1 30152:1 30944:1 33367:1 40637:1 41714:1 44492:1 44557:1 44912:1 45733:1 46916:1 47483:1 47744:1 47879:1 47953:1 47969:1 51664:1 52205:1 59707:1 60302:1 65656:1 67473:1 73549:1 75247:1 77978:1 78070:1 78097:1 78121:1 78176:1 78182:1 78864:1 79097:1 79318:1 80006:1 80111:1 81820:1 82758:1 83443:1 85755:1 85803:1 93076:1 94168:1 106305:1 
155.3755107656175 2000 1009.55599678518 23510:1 23516:1 23518:1 23524:1 23527:1 23530:1 23541:1 23552:1 23554:1 23555:1 33366:1 35867:1 40208:1 44492:1 47481:1 47581:1 47606:1 47757:1 47847:1 47895:1 48837:1 51836:1 52729:1 59953:1 60947:1 64003:1 65863:1 70463:1 74102:1 77975:1 78018:1 78043:1 78070:1 78074:1 78141:1 78179:1 78338:1 78570:1 78841:1 78919:1 80055:1 80529:1 80852:1 81642:1 85801:1 88307:1 92666:1 
74.49692898130873 609.8985859093001 0 8788:1 10075:1 14952:1 21805:1 23518:1 23519:1 23540:1 31668:1 33043:1 40468:1 42461:1 44157:1 44492:1 44908:1 45722:1 46903:1 47744:1 47854:1 47953:1 48022:1 50915:1 53456:1 54615:1 58543:1 63223:1 65775:1 68210:1 69353:1 73742:1 77362:1 78070:1 78106:1 78122:1 78158:1 78873:1 79202:1 79326:1 79763:1 81925:1 83087:1 83467:1 93570:1 94932:1 96665:1 106787:1 108286:1 
593.3649081047727 1291.641533175166 1602.04837834486 359:1 1461:1 15627:1 22608:1 23474:1 23516:1 23518:1 23859:1 25558:1 33778:1 35638:1 44492:1 44705:1 45356:1 47513:1 47550:1 47744:1 49454:1 50692:1 56621:1 58237:1 64011:1 65689:1 70733:1 72896:1 77984:1 78017:1 78070:1 78188:1 78323:1 80514:1 86205:1 88067:1 100538:1 
99.98205584863342 127.8856260053814 942.3796705537783 359:1 6726:1 7916:1 12207:1 12407:1 14538:1 15314:1 18588:1 18843:1 21252:1 22228:1 23474:1 23493:1 23516:1 23518:1 23520:1 23524:1 23554:1 23859:1 29965:1 31322:1 33778:1 35867:1 40198:1 42096:1 44489:1 44690:1 44967:1 45353:1 45859:1 46174:1 47131:1 47513:1 47550:1 47606:1 47715:1 47844:1 47912:1 48022:1 49407:1 50572:1 53166:1 54241:1 56543:1 58002:1 61467:1 62767:1 64583:1 66249:1 68198:1 69061:1 70258:1 72589:1 75895:1 77711:1 77984:1 78017:1 78043:1 78070:1 78091:1 78125:1 78158:1 78188:1 78323:1 78569:1 78858:1 79052:1 79386:1 79769:1 80158:1 80514:1 80848:1 81775:1 82655:1 83756:1 85001:1 85767:1 86205:1 88307:1 92656:1 94564:1 
603.0595921113475 947.2398198657432 1126.482794336144 129:1 2296:1 3407:1 6860:1 9060:1 10903:1 12042:1 15894:1 15999:1 16775:1 18392:1 22927:1 23053:1 23479:1 23518:1 23597:1 25667:1 26756:1 30025:1 32068:1 32548:1 33511:1 35749:1 36974:1 40504:1 42877:1 43639:1 44491:1 44698:1 44935:1 45481:1 45828:1 46643:1 47090:1 47513:1 47593:1 47653:1 47737:1 47879:1 47953:1 48022:1 49520:1 50361:1 50898:1 52119:1 53704:1 54217:1 56721:1 57739:1 58515:1 62739:1 64302:1 64941:1 65795:1 67150:1 68462:1 69205:1 70817:1 72149:1 72985:1 77170:1 77984:1 78017:1 78052:1 78070:1 78090:1 78108:1 78158:1 78188:1 78323:1 78633:1 78857:1 79046:1 79231:1 79780:1 80514:1 81069:1 81769:1 82625:1 83187:1 85067:1 85940:1 88184:1 89424:1 92945:1 95370:1 101981:1 106068:1 
0 567.945071970929 0 370:1 3129:1 13930:1 14245:1 15134:1 15524:1 20551:1 20905:1 21948:1 22479:1 23500:1 23512:1 23518:1 23520:1 23553:1 23555:1 23557:1 23870:1 26374:1 33792:1 33997:1 36585:1 40199:1 43041:1 44494:1 47513:1 47525:1 47653:1 47845:1 47912:1 47963:1 48345:1 50115:1 50748:1 53665:1 55123:1 57390:1 58322:1 62119:1 63839:1 65302:1 68256:1 69534:1 72074:1 77987:1 78006:1 78052:1 78070:1 78081:1 78125:1 78152:1 78191:1 78236:1 78624:1 78848:1 78954:1 79380:1 79707:1 80203:1 80427:1 81023:1 81677:1 82207:1 83727:1 84729:1 86216:1 86430:1 89025:1 92657:1 95544:1 101605:1 109079:1 
2000 311.6211840465023 0 1:1 1721:1 3386:1 11470:1 17706:1 23476:1 23518:1 23534:1 23556:1 23558:1 24422:1 26734:1 33355:1 34466:1 36950:1 41381:1 44491:1 44509:1 44935:1 45408:1 45818:1 46589:1 47477:1 47593:1 47653:1 47737:1 47879:1 47891:1 48765:1 50343:1 51678:1 52432:1 55635:1 59737:1 60578:1 63999:1 65471:1 67491:1 70963:1 77988:1 78017:1 78037:1 78070:1 78089:1 78115:1 78192:1 78326:1 78527:1 78856:1 79021:1 80228:1 80517:1 80748:1 81744:1 85776:1 85790:1 86874:1 89395:1 93864:1 99497:1 101854:1 
0 1403.087690830096 0 4614:1 8193:1 10906:1 14994:1 17022:1 21850:1 23486:1 23498:1 23518:1 23520:1 23555:1 23557:1 27928:1 31887:1 38158:1 40199:1 42681:1 43041:1 44491:1 44921:1 45755:1 46944:1 47737:1 47845:1 47912:1 47963:1 50939:1 53590:1 58579:1 62001:1 66145:1 68219:1 74160:1 75677:1 78070:1 78081:1 78125:1 78152:1 78848:1 78954:1 79380:1 79706:1 81677:1 82207:1 83726:1 84741:1 90616:1 92657:1 95163:1 95544:1 103089:1 105214:1 108458:1 109045:1 
77.85155160195106 577.843303198749 0 7932:1 12511:1 18955:1 23507:1 23512:1 23518:1 23520:1 23526:1 23532:1 23555:1 23557:1 31340:1 40210:1 42115:1 43040:1 44492:1 47848:1 47919:1 47962:1 50857:1 53186:1 58459:1 61489:1 66786:1 68103:1 73125:1 75983:1 78070:1 78078:1 78125:1 78151:1 78845:1 78941:1 79379:1 79688:1 81664:1 82182:1 83709:1 84678:1 92667:1 94583:1 95543:1 105638:1 108001:1 108937:1 
176.6643492775617 0 0 487:1 1677:1 3176:1 6868:1 9560:1 14302:1 15344:1 15898:1 16242:1 20978:1 22264:1 22939:1 23345:1 23474:1 23518:1 24010:1 24331:1 26451:1 30033:1 32098:1 32380:1 33929:1 34367:1 36666:1 40511:1 43472:1 44492:1 44705:1 44912:1 45488:1 45733:1 46649:1 46920:1 47513:1 47593:1 47653:1 47744:1 47879:1 47953:1 48022:1 48454:1 50170:1 50666:1 52126:1 53723:1 57450:1 58196:1 62206:1 63833:1 65278:1 66791:1 67155:1 68205:1 72420:1 74359:1 76095:1 77974:1 78014:1 78062:1 78070:1 78071:1 78134:1 78155:1 78178:1 78286:1 78750:1 78838:1 78886:1 79496:1 79723:1 80028:1 80477:1 81413:1 81609:1 81988:1 84123:1 86353:1 86776:1 89102:1 92954:1 95957:1 99415:1 101676:1 
0 377.2558125791278 0 1587:1 3068:1 3871:1 7137:1 9060:1 10101:1 11905:1 13431:1 15711:1 18232:1 19979:1 22710:1 23479:1 23498:1 23518:1 24004:1 24114:1 26298:1 27194:1 30304:1 32068:1 32225:1 34144:1 36506:1 37424:1 40795:1 42877:1 43183:1 44489:1 44690:1 44987:1 45474:1 45962:1 46636:1 47368:1 47513:1 47593:1 47653:1 47715:1 47879:1 47953:1 48022:1 48449:1 48595:1 50059:1 50597:1 52302:1 53704:1 54652:1 55375:1 57317:1 58064:1 60436:1 63267:1 63701:1 64733:1 65186:1 66856:1 67464:1 68462:1 69229:1 69683:1 70409:1 72396:1 72807:1 75002:1 77091:1 77995:1 78014:1 78061:1 78070:1 78086:1 78108:1 78156:1 78198:1 78294:1 78736:1 78853:1 78981:1 79230:1 79742:1 80302:1 80485:1 81704:1 82270:1 83168:1 84893:1 86557:1 88936:1 89882:1 93244:1 95370:1 96710:1 106420:1 108667:1 
0 186.9320619017405 0 534:1 1651:1 2988:1 3871:1 7127:1 8787:1 10903:1 11675:1 12705:1 16305:1 17034:1 17946:1 19117:1 23424:1 23478:1 23498:1 23518:1 24060:1 24261:1 26195:1 27194:1 30295:1 31665:1 33984:1 34296:1 36400:1 37424:1 40787:1 42459:1 43248:1 44489:1 44690:1 44987:1 45474:1 45962:1 46636:1 47368:1 47513:1 47593:1 47653:1 47715:1 47879:1 47953:1 48022:1 48505:1 48680:1 49966:1 50597:1 52297:1 53451:1 54262:1 55306:1 55504:1 58064:1 61820:1 62792:1 63713:1 64121:1 65131:1 66856:1 67249:1 68381:1 69104:1 69911:1 70143:1 72807:1 75699:1 77206:1 77984:1 78028:1 78060:1 78070:1 78086:1 78128:1 78176:1 78188:1 78432:1 78731:1 78853:1 78990:1 79436:1 79998:1 80154:1 80623:1 81381:1 81713:1 82320:1 83937:1 85723:1 86417:1 86712:1 88812:1 89882:1 93234:1 94930:1 96185:1 106405:1 
0 0 593.2775850978747 4408:1 23471:1 23518:1 23526:1 23534:1 23540:1 23556:1 27721:1 37951:1 41381:1 44489:1 44976:1 45903:1 47715:1 47854:1 47891:1 50843:1 58443:1 66689:1 67042:1 74335:1 78070:1 78106:1 78115:1 78873:1 79197:1 81920:1 90409:1 93864:1 
568.5907202506168 1309.39587789865 249.8654246102166 107:1 2294:1 5276:1 7344:1 10903:1 14493:1 15155:1 21189:1 22031:1 23242:1 23518:1 23520:1 23557:1 23573:1 25659:1 26602:1 28555:1 30496:1 33489:1 35741:1 38785:1 41008:1 41621:1 43046:1 44491:1 44698:1 44935:1 45481:1 45823:1 46643:1 47064:1 47513:1 47593:1 47653:1 47737:1 47879:1 47912:1 47964:1 48108:1 49512:1 50265:1 51271:1 53782:1 54878:1 56715:1 57590:1 59096:1 62269:1 63758:1 64254:1 65394:1 66745:1 67890:1 69663:1 71404:1 73453:1 76587:1 77984:1 78022:1 78060:1 78070:1 78086:1 78137:1 78145:1 78188:1 78377:1 78727:1 78853:1 78994:1 79571:1 79653:1 80154:1 80568:1 81371:1 81717:1 82337:1 84355:1 84625:1 85914:1 88175:1 91243:1 93469:1 95481:1 95549:1 106707:1 108818:1 109167:1 
2000 1897.933566848457 0 7583:1 13628:1 15589:1 20214:1 22555:1 23507:1 23518:1 23520:1 23557:1 30729:1 41259:1 43046:1 44491:1 44935:1 45824:1 47058:1 47737:1 47879:1 47919:1 47964:1 50936:1 52583:1 52878:1 58576:1 60786:1 65933:1 67323:1 68096:1 73187:1 75063:1 78070:1 78089:1 78125:1 78145:1 78856:1 79029:1 79373:1 79641:1 81752:1 82517:1 83688:1 84573:1 85785:1 93728:1 95549:1 
0 1665.500263711607 0 179:1 2727:1 5276:1 11285:1 12083:1 12196:1 13429:1 17482:1 18438:1 18572:1 19975:1 23510:1 23516:1 23518:1 23530:1 23533:1 23555:1 23651:1 25830:1 28555:1 33569:1 36032:1 38785:1 40213:1 44491:1 44698:1 44926:1 47513:1 47653:1 47737:1 47850:1 48165:1 48884:1 49701:1 51271:1 54939:1 55796:1 59096:1 63772:1 64071:1 64969:1 66745:1 69665:1 69964:1 73453:1 77987:1 78018:1 78036:1 78070:1 78080:1 78191:1 78348:1 78511:1 78847:1 80202:1 80539:1 80713:1 85781:1 85992:1 88448:1 91243:1 92669:1 103675:1 
0 0 367.613819088832 35:1 10328:1 10329:1 10330:1 10331:1 11609:1 13864:1 15325:1 17875:1 20473:1 22246:1 23474:1 23498:1 23515:1 23516:1 23517:1 23518:1 23533:1 23545:1 23546:1 23547:1 23548:1 23555:1 23740:1 25467:1 27213:1 33650:1 37443:1 40213:1 44489:1 44610:1 44811:1 45221:1 46306:1 47490:1 47533:1 47613:1 47664:1 47850:1 48240:1 49410:1 50109:1 50611:1 56546:1 58078:1 63655:1 64211:1 65656:1 70554:1 73549:1 77984:1 78017:1 78053:1 78070:1 78080:1 78188:1 78323:1 78662:1 78847:1 80150:1 80514:1 81194:1 86075:1 89901:1 92669:1 
26.87533099015316 0 29.2156376460814 449:1 1861:1 3390:1 5141:1 7108:1 8448:1 11056:1 11722:1 12705:1 15325:1 17207:1 17997:1 19117:1 22244:1 23498:1 23508:1 23518:1 23521:1 23967:1 24735:1 26739:1 28442:1 30275:1 31021:1 34778:1 36955:1 38672:1 40766:1 41799:1 44489:1 44690:1 44987:1 45474:1 45962:1 46636:1 47359:1 47513:1 47593:1 47653:1 47715:1 47879:1 47953:1 47988:1 48422:1 48968:1 50343:1 51204:1 52280:1 52976:1 54174:1 55216:1 57718:1 58997:1 60406:1 61180:1 62677:1 63746:1 64217:1 65143:1 66133:1 67171:1 68141:1 69146:1 69619:1 72325:1 73275:1 74990:1 76798:1 77443:1 77996:1 78026:1 78055:1 78070:1 78087:1 78124:1 78159:1 78199:1 78413:1 78687:1 78854:1 79006:1 79355:1 79796:1 80321:1 80604:1 81280:1 81729:1 82391:1 83599:1 85134:1 86310:1 87185:1 89400:1 91130:1 93211:1 94253:1 101922:1 106383:1 
0 671.0618047058307 871.7382106845848 2478:1 10514:1 11313:1 15843:1 16560:1 17519:1 22863:1 23470:1 23482:1 23486:1 23516:1 23517:1 23518:1 23520:1 23552:1 23555:1 23557:1 26225:1 33466:1 36432:1 40199:1 43041:1 44491:1 44604:1 44921:1 45343:1 45755:1 46410:1 46944:1 47487:1 47550:1 47619:1 47737:1 47845:1 47912:1 47963:1 50884:1 52874:1 58496:1 61055:1 63989:1 66473:1 68219:1 71015:1 73630:1 75677:1 77976:1 78018:1 78049:1 78070:1 78081:1 78125:1 78152:1 78180:1 78339:1 78595:1 78848:1 78954:1 79380:1 79712:1 80077:1 80530:1 80916:1 81677:1 82207:1 83732:1 84747:1 85897:1 88853:1 92657:1 95544:1 108968:1 
0 931.3038493501008 181.6253642478518 2590:1 8323:1 10335:1 14542:1 15028:1 16133:1 21256:1 21887:1 23218:1 23483:1 23486:1 23517:1 23518:1 23520:1 23536:1 23553:1 23555:1 23557:1 26489:1 32158:1 33446:1 33994:1 36705:1 40199:1 42964:1 43041:1 44489:1 44584:1 44968:1 45111:1 45866:1 46364:1 47145:1 47485:1 47522:1 47619:1 47715:1 47845:1 47912:1 47963:1 50193:1 53775:1 57483:1 62256:1 64969:1 65626:1 68142:1 71913:1 75657:1 78003:1 78012:1 78053:1 78070:1 78081:1 78125:1 78152:1 78207:1 78281:1 78657:1 78848:1 78954:1 79380:1 79712:1 80384:1 80472:1 81178:1 81677:1 82207:1 83732:1 85874:1 86427:1 89145:1 92657:1 95466:1 95544:1 99041:1 105236:1 108797:1 108968:1 
620.3069233977981 2000 85.89062162185488 2419:1 10335:1 10442:1 10719:1 11651:1 16478:1 16788:1 17922:1 23483:1 23486:1 23517:1 23518:1 23520:1 23536:1 23553:1 23555:1 23557:1 26017:1 33446:1 33994:1 36226:1 40199:1 43041:1 44491:1 44588:1 44921:1 45112:1 45755:1 46365:1 46944:1 47485:1 47522:1 47619:1 47737:1 47845:1 47912:1 47963:1 49825:1 51166:1 52909:1 57064:1 65430:1 66914:1 68219:1 72141:1 75899:1 78003:1 78012:1 78053:1 78070:1 78081:1 78125:1 78152:1 78207:1 78281:1 78657:1 78848:1 78954:1 79380:1 80384:1 80472:1 81178:1 81677:1 82207:1 85874:1 86427:1 88634:1 92657:1 95544:1 99041:1 
0 1585.887673371579 109.6860280326975 2478:1 8040:1 13517:1 15317:1 15343:1 20082:1 22231:1 22263:1 23486:1 23516:1 23517:1 23518:1 23520:1 23552:1 23555:1 23557:1 26225:1 31547:1 33466:1 36432:1 40199:1 42332:1 43041:1 44491:1 44604:1 44921:1 45343:1 45755:1 46410:1 46944:1 47487:1 47550:1 47619:1 47737:1 47845:1 47912:1 47963:1 49408:1 51129:1 53365:1 58879:1 61695:1 64245:1 66054:1 68219:1 70671:1 73577:1 75677:1 77976:1 78018:1 78049:1 78070:1 78081:1 78125:1 78152:1 78180:1 78339:1 78595:1 78848:1 78954:1 79380:1 79712:1 80077:1 80530:1 80916:1 81677:1 82207:1 83732:1 84747:1 85897:1 88853:1 92657:1 94801:1 95544:1 105192:1 108195:1 108968:1 
0 608.4300122675194 0 5608:1 8306:1 15719:1 15980:1 22717:1 23033:1 23486:1 23498:1 23518:1 23520:1 23555:1 23557:1 28903:1 32123:1 39133:1 40199:1 42931:1 43041:1 44491:1 44921:1 45755:1 46944:1 47737:1 47845:1 47912:1 47963:1 51393:1 53740:1 59310:1 62226:1 66729:1 68076:1 74451:1 75640:1 78070:1 78081:1 78125:1 78152:1 78848:1 78954:1 79380:1 79712:1 81677:1 82207:1 83732:1 84747:1 91591:1 92657:1 95434:1 95544:1 105232:1 108775:1 108969:1 
223.7336045943761 1357.915467732759 16.55454792806238 2671:1 10335:1 12131:1 14167:1 15980:1 18492:1 20810:1 23033:1 23483:1 23486:1 23517:1 23518:1 23520:1 23536:1 23553:1 23555:1 23557:1 26777:1 33404:1 33994:1 36995:1 40199:1 43041:1 44491:1 44588:1 44921:1 45112:1 45755:1 46365:1 46944:1 47485:1 47522:1 47619:1 47737:1 47845:1 47912:1 47963:1 50374:1 51715:1 53125:1 57759:1 59800:1 65185:1 65809:1 68219:1 71513:1 76365:1 78003:1 78012:1 78053:1 78070:1 78081:1 78125:1 78152:1 78207:1 78281:1 78657:1 78848:1 78954:1 79380:1 79712:1 80384:1 80472:1 81178:1 81677:1 82207:1 83732:1 84744:1 85810:1 86427:1 89449:1 92657:1 95544:1 99039:1 101999:1 108968:1 
606.4501964724946 2000 809.9264767738947 7438:1 8814:1 9522:1 12546:1 14705:1 15037:1 18997:1 21471:1 21896:1 23518:1 30590:1 31712:1 32323:1 41110:1 42505:1 43411:1 44489:1 44987:1 45962:1 47368:1 47715:1 47879:1 47953:1 48022:1 51393:1 52487:1 54061:1 59310:1 60654:1 62526:1 67288:1 69456:1 74993:1 77038:1 78070:1 78099:1 78121:1 78163:1 78866:1 79126:1 79311:1 79841:1 81849:1 82888:1 83402:1 85290:1 93571:1 94983:1 95898:1 106788:1 108342:1 109529:1 
42.8265558309466 786.7543424970899 678.7372530973198 2478:1 7799:1 11133:1 14216:1 15392:1 17302:1 20869:1 22317:1 23470:1 23482:1 23486:1 23516:1 23517:1 23518:1 23520:1 23552:1 23555:1 23557:1 26225:1 31040:1 33466:1 36432:1 40199:1 41818:1 43041:1 44491:1 44604:1 44921:1 45343:1 45755:1 46410:1 46944:1 47487:1 47550:1 47619:1 47737:1 47845:1 47912:1 47963:1 49424:1 51209:1 52985:1 61198:1 64186:1 65977:1 68370:1 70872:1 73867:1 75696:1 77976:1 78018:1 78049:1 78070:1 78081:1 78125:1 78152:1 78180:1 78339:1 78595:1 78848:1 78954:1 79380:1 79712:1 80077:1 80530:1 80916:1 81677:1 82207:1 83732:1 84747:1 85897:1 88853:1 92657:1 94272:1 95544:1 105147:1 107805:1 108969:1 
0 0 323.6902895831339 2478:1 8050:1 13581:1 16053:1 20160:1 23118:1 23482:1 23486:1 23512:1 23516:1 23517:1 23518:1 23520:1 23552:1 23555:1 23557:1 26225:1 31564:1 33466:1 36432:1 40199:1 42350:1 43041:1 44491:1 44602:1 44796:1 45341:1 45578:1 46408:1 46729:1 47487:1 47550:1 47619:1 47677:1 47845:1 47912:1 47963:1 51798:1 53385:1 61715:1 64809:1 66854:1 68519:1 70940:1 73982:1 76403:1 77976:1 78018:1 78049:1 78070:1 78081:1 78125:1 78152:1 78180:1 78339:1 78595:1 78848:1 78954:1 79380:1 79712:1 80077:1 80530:1 80916:1 81677:1 82207:1 83732:1 84747:1 85897:1 88853:1 92657:1 94817:1 95544:1 108968:1 
0 1270.846710189422 128.0168776924311 2478:1 11979:1 12225:1 15877:1 18321:1 18617:1 22903:1 23486:1 23516:1 23517:1 23518:1 23520:1 23552:1 23555:1 23557:1 26225:1 33466:1 36432:1 40199:1 43041:1 44491:1 44604:1 44921:1 45343:1 45756:1 46410:1 46943:1 47487:1 47550:1 47619:1 47737:1 47845:1 47919:1 47963:1 49499:1 50985:1 53141:1 68203:1 75675:1 77976:1 78018:1 78049:1 78070:1 78081:1 78125:1 78152:1 78180:1 78339:1 78595:1 78848:1 78954:1 79380:1 79712:1 80077:1 80530:1 80916:1 81677:1 82207:1 83732:1 84747:1 85897:1 88853:1 92657:1 95544:1 108968:1 
777.7459423558555 2000 2000 12490:1 18933:1 23486:1 23518:1 23520:1 23555:1 23557:1 40199:1 43041:1 44489:1 44968:1 45866:1 47145:1 47715:1 47845:1 47912:1 47963:1 50577:1 53182:1 61485:1 66840:1 68003:1 74461:1 78070:1 78081:1 78125:1 78152:1 78848:1 78954:1 79380:1 79712:1 81677:1 82207:1 83732:1 84744:1 92657:1 95544:1 108999:1 
0 1961.884920204268 0 7669:1 9951:1 10460:1 16237:1 16500:1 23339:1 23518:1 23527:1 23541:1 30814:1 32900:1 41347:1 44012:1 44491:1 44935:1 45819:1 47053:1 47737:1 47879:1 47895:1 48022:1 50793:1 52654:1 58388:1 66840:1 67542:1 74461:1 78070:1 78096:1 78141:1 78155:1 78863:1 79174:1 79598:1 79723:1 81897:1 83043:1 84413:1 84778:1 93830:1 96517:1 109940:1 
539.0156491515157 945.0890357845041 351.8223458440892 2478:1 7851:1 11653:1 12534:1 14580:1 17924:1 18982:1 21308:1 23482:1 23486:1 23516:1 23517:1 23518:1 23520:1 23552:1 23555:1 23557:1 26225:1 31155:1 33466:1 36432:1 40199:1 41930:1 43041:1 44491:1 44604:1 44921:1 45343:1 45756:1 46410:1 46943:1 47487:1 47550:1 47619:1 47737:1 47845:1 47919:1 47963:1 49293:1 51666:1 53044:1 59712:1 61294:1 64214:1 66014:1 68147:1 69998:1 72538:1 75752:1 77976:1 78018:1 78049:1 78070:1 78081:1 78125:1 78152:1 78180:1 78339:1 78595:1 78848:1 78954:1 79380:1 79712:1 80077:1 80530:1 80916:1 81677:1 82207:1 83732:1 84747:1 85897:1 88853:1 92657:1 94386:1 95544:1 105158:1 107873:1 109035:1 
801.2785217479761 1971.098770753389 1188.415112380262 2421:1 10335:1 11653:1 15439:1 17924:1 22369:1 23483:1 23517:1 23518:1 23536:1 23553:1 26019:1 33462:1 33994:1 36228:1 44489:1 44584:1 45111:1 46328:1 47485:1 47522:1 47623:1 47715:1 49826:1 50937:1 57065:1 58577:1 65240:1 66562:1 71602:1 73938:1 78003:1 78012:1 78053:1 78070:1 78207:1 78281:1 78657:1 80472:1 81178:1 85893:1 86427:1 88636:1 101348:1 
1310.938558014165 162.0273109901234 1109.692953774117 7669:1 9951:1 10460:1 16237:1 16500:1 23339:1 23518:1 23527:1 23541:1 30814:1 32900:1 41347:1 44012:1 44489:1 44987:1 45945:1 47305:1 47715:1 47879:1 47895:1 48022:1 51666:1 52654:1 52681:1 59712:1 60889:1 66648:1 67542:1 67646:1 72681:1 78070:1 78096:1 78141:1 78155:1 78863:1 79174:1 79598:1 79723:1 81897:1 83043:1 84413:1 84778:1 93830:1 96517:1 109940:1 
0 621.5447143173487 0 2623:1 10335:1 12720:1 15159:1 19192:1 22037:1 23483:1 23517:1 23518:1 23536:1 23553:1 26604:1 33404:1 33994:1 36819:1 44492:1 44589:1 47485:1 47522:1 47619:1 47744:1 50265:1 51533:1 57591:1 59495:1 64969:1 65604:1 71913:1 74061:1 78003:1 78012:1 78053:1 78070:1 78207:1 78281:1 78657:1 80472:1 81178:1 85810:1 86427:1 89261:1 99039:1 101766:1 
225.6661634593243 1145.360943382716 181.4935061025932 2478:1 7995:1 11520:1 13041:1 14953:1 17769:1 19554:1 21806:1 23486:1 23516:1 23517:1 23518:1 23520:1 23523:1 23552:1 23555:1 23557:1 26225:1 31467:1 33466:1 36432:1 40199:1 42248:1 43041:1 44491:1 44604:1 44921:1 45755:1 46944:1 47487:1 47619:1 47737:1 47845:1 47912:1 47963:1 49343:1 50981:1 53273:1 56448:1 58652:1 61604:1 64302:1 66456:1 67774:1 71454:1 74203:1 76459:1 77976:1 78018:1 78049:1 78070:1 78081:1 78125:1 78152:1 78180:1 78339:1 78595:1 78848:1 78954:1 79380:1 79712:1 80077:1 80530:1 80916:1 81677:1 82207:1 83732:1 84747:1 85897:1 88853:1 92657:1 94714:1 95544:1 105182:1 108134:1 108999:1 
496.0356565113049 2000 1642.662296830365 8094:1 13917:1 20537:1 23486:1 23518:1 23520:1 23555:1 23557:1 31634:1 40199:1 42427:1 43041:1 44489:1 44968:1 45866:1 47145:1 47715:1 47845:1 47912:1 47963:1 50667:1 53428:1 58202:1 61786:1 66323:1 68312:1 73396:1 75837:1 78070:1 78081:1 78125:1 78152:1 78848:1 78954:1 79380:1 79712:1 81677:1 82207:1 83732:1 84744:1 92657:1 94896:1 95544:1 105197:1 108252:1 108989:1 
160.9531882135264 0 0 2478:1 7901:1 10647:1 12290:1 13270:1 16702:1 18704:1 19794:1 23486:1 23498:1 23516:1 23517:1 23518:1 23520:1 23525:1 23539:1 23552:1 23555:1 23557:1 26225:1 28775:1 31290:1 33466:1 36432:1 39005:1 40199:1 42067:1 43041:1 44489:1 44767:1 45536:1 46690:1 47487:1 47550:1 47619:1 47659:1 47845:1 47912:1 47963:1 48633:1 51337:1 53151:1 55425:1 59231:1 61440:1 64708:1 65555:1 67801:1 72492:1 76158:1 77976:1 78018:1 78049:1 78070:1 78081:1 78125:1 78152:1 78180:1 78339:1 78595:1 78848:1 78954:1 79380:1 79712:1 80077:1 80530:1 80916:1 81677:1 82207:1 83732:1 84747:1 85897:1 88853:1 91463:1 92657:1 94528:1 95544:1 105169:1 107952:1 108969:1 
1165.386091392919 2000 624.2490223056255 2447:1 10335:1 12290:1 13992:1 18704:1 20621:1 23483:1 23517:1 23518:1 23536:1 23553:1 26130:1 33404:1 33994:1 36330:1 44491:1 44588:1 45112:1 46365:1 47485:1 47522:1 47619:1 47737:1 49920:1 51129:1 57164:1 58878:1 64969:1 65809:1 71913:1 78003:1 78012:1 78053:1 78070:1 78207:1 78281:1 78657:1 80472:1 81178:1 85810:1 86427:1 88744:1 99039:1 
891.5587355869028 0 0 7669:1 9951:1 10460:1 16237:1 16500:1 23339:1 23498:1 23518:1 23525:1 23527:1 23539:1 23541:1 28775:1 30814:1 32900:1 39005:1 41347:1 41436:1 44012:1 44489:1 44769:1 45539:1 46692:1 47659:1 47879:1 47895:1 48022:1 51337:1 52654:1 52719:1 59231:1 65555:1 67542:1 67668:1 72492:1 78070:1 78096:1 78141:1 78155:1 78863:1 79174:1 79598:1 79723:1 81897:1 83043:1 84413:1 84778:1 91463:1 93830:1 93928:1 96517:1 107111:1 107337:1 109940:1 
0 411.111972902913 717.9700630876258 2478:1 13328:1 13599:1 15359:1 19860:1 20178:1 22281:1 23482:1 23486:1 23516:1 23517:1 23518:1 23520:1 23552:1 23555:1 23557:1 26225:1 33466:1 36432:1 40199:1 43041:1 44491:1 44604:1 44921:1 45343:1 45755:1 46410:1 46944:1 47487:1 47550:1 47619:1 47737:1 47845:1 47912:1 47963:1 51652:1 53388:1 66322:1 68219:1 76365:1 77976:1 78018:1 78049:1 78070:1 78081:1 78125:1 78152:1 78180:1 78339:1 78595:1 78848:1 78954:1 79380:1 79712:1 80077:1 80530:1 80916:1 81677:1 82207:1 83732:1 84747:1 85897:1 88853:1 92657:1 95544:1 108968:1 
0 2000 0 510:1 16035:1 23099:1 23516:1 23518:1 24037:1 33953:1 44491:1 44698:1 45256:1 47513:1 47560:1 47737:1 48588:1 50692:1 58237:1 64540:1 66323:1 71116:1 73396:1 77987:1 78018:1 78070:1 78191:1 78348:1 80539:1 86384:1 
463.1507704851468 2000 2000 13882:1 20497:1 23518:1 23520:1 23526:1 23555:1 23557:1 40210:1 43040:1 44489:1 44971:1 45893:1 47203:1 47715:1 47848:1 47919:1 47962:1 51551:1 53431:1 59520:1 66045:1 74301:1 78070:1 78078:1 78125:1 78151:1 78845:1 78941:1 79379:1 79688:1 81664:1 82182:1 83709:1 84679:1 92667:1 95543:1 108935:1 
710.8585229922614 1889.892494698852 1512.12433325749 15235:1 22134:1 23518:1 23520:1 23526:1 23555:1 23557:1 40210:1 43040:1 44489:1 44971:1 45893:1 47203:1 47715:1 47848:1 47919:1 47962:1 50692:1 53630:1 58237:1 62061:1 68024:1 75779:1 78070:1 78078:1 78125:1 78151:1 78845:1 78941:1 79379:1 79688:1 81664:1 82182:1 83709:1 84678:1 92667:1 95543:1 
0 0 474.841967018802 4467:1 23498:1 23518:1 23555:1 27778:1 38008:1 40464:1 44489:1 44977:1 47715:1 47856:1 50872:1 58477:1 66629:1 72676:1 78070:1 78076:1 78843:1 90466:1 92918:1 
264.2779933537339 1170.861647169649 2000 1:1 3021:1 7323:1 14096:1 15134:1 15687:1 20732:1 22005:1 22677:1 23470:1 23516:1 23518:1 23534:1 23556:1 23558:1 26225:1 30476:1 33355:1 36432:1 40989:1 41381:1 44491:1 44509:1 44935:1 45308:1 45818:1 46555:1 47477:1 47550:1 47653:1 47737:1 47879:1 47891:1 49463:1 50726:1 52432:1 56636:1 58290:1 60578:1 64455:1 67434:1 70251:1 74859:1 77988:1 78018:1 78049:1 78070:1 78089:1 78115:1 78192:1 78349:1 78595:1 78856:1 79021:1 80228:1 80540:1 80921:1 81744:1 85790:1 88853:1 93447:1 93864:1 
0 0 598.9895391139233 427:1 5663:1 7597:1 11945:1 12152:1 14490:1 15134:1 15746:1 16228:1 18283:1 18512:1 21186:1 21948:1 22746:1 23330:1 23498:1 23518:1 23521:1 23535:1 23553:1 23554:1 23944:1 28951:1 30742:1 33860:1 33988:1 35866:1 39181:1 41273:1 44489:1 44690:1 44987:1 45085:1 45962:1 46122:1 47356:1 47513:1 47516:1 47604:1 47715:1 47879:1 47953:1 47983:1 48401:1 51429:1 52596:1 53517:1 55190:1 59349:1 60800:1 61895:1 63578:1 66227:1 67213:1 68039:1 69822:1 73884:1 75398:1 75781:1 77994:1 78008:1 78039:1 78070:1 78089:1 78124:1 78158:1 78197:1 78256:1 78537:1 78856:1 79028:1 79354:1 79770:1 80288:1 80447:1 80782:1 81751:1 82500:1 83583:1 85015:1 86281:1 86421:1 88305:1 91639:1 93743:1 99014:1 100882:1 
54.54946054554113 482.8821760756524 0 106:1 2319:1 3393:1 4020:1 7552:1 10286:1 10421:1 10903:1 12808:1 13186:1 15357:1 16173:1 16453:1 17020:1 19293:1 19705:1 22279:1 23242:1 23268:1 23498:1 23507:1 23518:1 23520:1 23572:1 25713:1 26741:1 27314:1 30696:1 32335:1 33488:1 35794:1 36957:1 37544:1 41228:1 43425:1 44491:1 44698:1 44935:1 45481:1 45824:1 46643:1 47061:1 47513:1 47593:1 47653:1 47737:1 47879:1 47919:1 48022:1 48107:1 49555:1 50344:1 50644:1 52561:1 53295:1 54797:1 54877:1 56761:1 57721:1 58149:1 60756:1 61624:1 63831:1 64120:1 65147:1 65904:1 67434:1 67813:1 69455:1 69611:1 71395:1 72326:1 73184:1 75288:1 76227:1 77984:1 78017:1 78037:1 78070:1 78096:1 78125:1 78167:1 78188:1 78323:1 78527:1 78863:1 79169:1 79393:1 79885:1 80163:1 80514:1 80746:1 81892:1 83793:1 85447:1 85913:1 88232:1 89403:1 90002:1 93694:1 96953:1 101928:1 110309:1 
0 486.6370308003583 1232.05898014235 3789:1 7169:1 9138:1 10340:1 12705:1 16237:1 19164:1 23365:1 23471:1 23518:1 23542:1 27108:1 30338:1 32191:1 37338:1 40831:1 43007:1 43135:1 44489:1 44987:1 45962:1 47352:1 47715:1 47879:1 47953:1 47969:1 50572:1 52328:1 53803:1 58003:1 66473:1 67265:1 68555:1 73701:1 78070:1 78101:1 78134:1 78176:1 78868:1 79159:1 79507:1 79996:1 81882:1 83007:1 84167:1 85713:1 89796:1 93279:1 95519:1 95638:1 102301:1 106491:1 
0 0 415.0901994146352 5495:1 10331:1 10338:1 10339:1 23471:1 23512:1 23518:1 23535:1 23540:1 23541:1 23542:1 28835:1 39065:1 40425:1 41515:1 44491:1 44787:1 45561:1 46714:1 47671:1 47854:1 47895:1 47969:1 51367:1 53844:1 59274:1 66476:1 74666:1 78070:1 78106:1 78141:1 78176:1 78873:1 79211:1 79610:1 79989:1 81934:1 83116:1 84466:1 91523:1 92880:1 94004:1 103946:1 
0 0 571.6877179814635 3989:1 10331:1 10338:1 10339:1 23471:1 23518:1 23535:1 23540:1 23541:1 23542:1 23548:1 27389:1 37619:1 40416:1 41524:1 44489:1 44813:1 45618:1 46778:1 47664:1 47854:1 47895:1 47969:1 50667:1 53841:1 58198:1 65622:1 68738:1 72816:1 78070:1 78106:1 78141:1 78176:1 78873:1 79211:1 79610:1 80007:1 81934:1 83116:1 84472:1 85763:1 90077:1 92870:1 94012:1 102587:1 
0 0 215.5130181256166 6009:1 10331:1 10338:1 10339:1 23471:1 23518:1 23535:1 23540:1 23541:1 23542:1 23548:1 29351:1 39581:1 40408:1 41539:1 43074:1 44489:1 44813:1 45618:1 46778:1 47664:1 47854:1 47895:1 47969:1 51615:1 53839:1 59625:1 62340:1 66765:1 68721:1 74457:1 76857:1 78070:1 78106:1 78141:1 78176:1 78873:1 79211:1 79610:1 80007:1 81934:1 83116:1 84472:1 92039:1 92862:1 94028:1 95578:1 109208:1 
131.8323774448036 438.4063505202352 0 3978:1 6762:1 8109:1 10331:1 10332:1 10333:1 14077:1 20713:1 23473:1 23513:1 23518:1 23519:1 23520:1 23548:1 23549:1 27313:1 30052:1 31673:1 37543:1 40533:1 42466:1 44489:1 44814:1 45630:1 47664:1 47859:1 47902:1 50644:1 53458:1 58149:1 61825:1 66359:1 68292:1 74185:1 76813:1 78070:1 78086:1 78125:1 78853:1 78988:1 81711:1 90001:1 92977:1 94937:1 102515:1 106195:1 
0 0 486.1169077062128 3528:1 10331:1 10338:1 10339:1 23471:1 23518:1 23535:1 23540:1 23541:1 23542:1 23548:1 27063:1 37293:1 40433:1 41497:1 44489:1 44813:1 45618:1 46778:1 47664:1 47854:1 47895:1 47969:1 50550:1 53847:1 57977:1 66385:1 72630:1 78070:1 78106:1 78141:1 78176:1 78873:1 79211:1 79610:1 79989:1 81934:1 83116:1 84466:1 89751:1 92888:1 93987:1 102250:1 
0 0 62.04933625563657 5495:1 10331:1 10338:1 10339:1 23471:1 23512:1 23518:1 23535:1 23540:1 23541:1 23542:1 28835:1 39065:1 40393:1 41548:1 43060:1 44491:1 44787:1 45561:1 46714:1 47671:1 47854:1 47895:1 47969:1 51367:1 53834:1 59274:1 62326:1 66476:1 68695:1 74666:1 76843:1 78070:1 78106:1 78141:1 78176:1 78873:1 79211:1 79610:1 80007:1 81934:1 83116:1 84472:1 85763:1 91523:1 92848:1 94038:1 95564:1 103945:1 105889:1 107490:1 109193:1 
0 0 14.84622477683536 3989:1 10331:1 10338:1 10339:1 23471:1 23518:1 23535:1 23540:1 23541:1 23542:1 23548:1 27389:1 37619:1 40406:1 41540:1 43073:1 44489:1 44813:1 45618:1 46778:1 47664:1 47854:1 47895:1 47969:1 50667:1 53838:1 58198:1 62339:1 65622:1 68719:1 72816:1 76856:1 78070:1 78106:1 78141:1 78176:1 78873:1 79211:1 79610:1 80007:1 81934:1 83116:1 84472:1 90077:1 92861:1 94030:1 95577:1 102585:1 105918:1 107454:1 
0 0 482.9286281895793 5103:1 10331:1 10338:1 10339:1 23471:1 23512:1 23518:1 23535:1 23540:1 23541:1 23542:1 28501:1 38731:1 40412:1 41537:1 44491:1 45066:1 46050:1 47466:1 47830:1 47854:1 47895:1 47969:1 51236:1 53840:1 59043:1 66227:1 73021:1 78070:1 78106:1 78141:1 78176:1 78873:1 79211:1 79610:1 80007:1 81934:1 83116:1 84472:1 85763:1 91189:1 92866:1 94026:1 
0 0 665.3955547989495 6030:1 6762:1 7808:1 10331:1 10332:1 10333:1 11441:1 17668:1 23471:1 23484:1 23498:1 23512:1 23518:1 23519:1 23520:1 23549:1 23550:1 29504:1 30052:1 31113:1 39734:1 40533:1 41895:1 44491:1 44788:1 45567:1 47671:1 47859:1 47901:1 51677:1 53023:1 59728:1 61259:1 66828:1 67771:1 73975:1 76457:1 78070:1 78086:1 78125:1 78853:1 78988:1 81711:1 92192:1 92977:1 94348:1 104549:1 106186:1 
0 0 959.5186704137652 720:1 5495:1 10331:1 10335:1 10338:1 11175:1 17345:1 23471:1 23512:1 23516:1 23518:1 23536:1 23540:1 24335:1 28835:1 33459:1 34371:1 39065:1 40272:1 44491:1 44578:1 44787:1 45333:1 47485:1 47550:1 47671:1 47854:1 48731:1 51367:1 55573:1 59274:1 64463:1 66476:1 71104:1 74666:1 78003:1 78018:1 78070:1 78106:1 78207:1 78358:1 78873:1 80398:1 80549:1 85887:1 86780:1 91523:1 92674:1 97750:1 103932:1 
0 0 46.96332808128495 791:1 4088:1 10329:1 10335:1 10338:1 11833:1 18141:1 23470:1 23471:1 23516:1 23518:1 23536:1 23540:1 23546:1 24523:1 27389:1 33459:1 34564:1 37619:1 40369:1 44489:1 44584:1 44976:1 45218:1 47485:1 47533:1 47715:1 47854:1 48810:1 50667:1 55713:1 58198:1 64518:1 65622:1 71110:1 72816:1 78003:1 78018:1 78070:1 78106:1 78207:1 78358:1 78873:1 80398:1 80549:1 85887:1 86972:1 90077:1 92800:1 99575:1 102583:1 
0 0 209.1333607159517 6385:1 7805:1 10333:1 10338:1 10340:1 11387:1 17606:1 23473:1 23518:1 23520:1 23540:1 23542:1 23550:1 29642:1 31099:1 39872:1 40226:1 41879:1 43291:1 44489:1 44976:1 45906:1 47235:1 47715:1 47854:1 47901:1 47969:1 51733:1 53014:1 59826:1 61246:1 66911:1 67801:1 73142:1 76158:1 78070:1 78106:1 78125:1 78176:1 78873:1 79204:1 79401:1 79992:1 81927:1 83100:1 83829:1 85697:1 92330:1 92677:1 94333:1 95787:1 
0 0 59.14109501495787 3989:1 7906:1 10331:1 10338:1 10340:1 12326:1 18749:1 23471:1 23518:1 23520:1 23540:1 23542:1 23548:1 27389:1 31302:1 37619:1 40457:1 42078:1 43211:1 44489:1 44813:1 45621:1 46786:1 47664:1 47854:1 47912:1 47969:1 50667:1 53159:1 58198:1 61451:1 65622:1 68049:1 72816:1 76508:1 78070:1 78106:1 78125:1 78176:1 78873:1 79204:1 79401:1 81927:1 83100:1 90077:1 92890:1 94539:1 95691:1 
0 0 594.0220917695041 1366:1 5546:1 10329:1 10335:1 10338:1 15100:1 21969:1 23470:1 23471:1 23510:1 23516:1 23518:1 23536:1 23540:1 25412:1 28835:1 33383:1 35486:1 39065:1 40231:1 44491:1 44588:1 44928:1 47485:1 47534:1 47737:1 47854:1 49376:1 51367:1 56489:1 59274:1 64689:1 66476:1 70597:1 74666:1 78003:1 78018:1 78070:1 78106:1 78207:1 78358:1 78873:1 80398:1 80549:1 85820:1 87912:1 91523:1 92686:1 97658:1 
0 0 63.03484730217506 4002:1 8254:1 10331:1 10338:1 10340:1 15494:1 22437:1 23473:1 23486:1 23500:1 23518:1 23520:1 23540:1 23542:1 23548:1 27447:1 32010:1 37677:1 40226:1 42811:1 43184:1 44489:1 44813:1 45622:1 46784:1 47664:1 47854:1 47919:1 47969:1 50690:1 53664:1 58227:1 62112:1 65606:1 68503:1 74062:1 76399:1 78070:1 78106:1 78125:1 78176:1 78873:1 79204:1 79401:1 81927:1 83100:1 90135:1 92677:1 95304:1 95671:1 102663:1 105688:1 108561:1 
261.1848712796661 1021.95425093218 1148.806795918966 2476:1 6337:1 10328:1 10330:1 10331:1 10332:1 10333:1 12791:1 12913:1 13488:1 19271:1 19411:1 20044:1 23515:1 23516:1 23517:1 23518:1 23519:1 23520:1 23535:1 23537:1 23545:1 23547:1 23548:1 23549:1 23550:1 23557:1 23804:1 24067:1 26225:1 29642:1 30527:1 34007:1 36432:1 39872:1 41041:1 43100:1 44489:1 44610:1 44814:1 45175:1 45629:1 46294:1 46796:1 47490:1 47529:1 47613:1 47664:1 47859:1 47901:1 47967:1 48301:1 48515:1 51733:1 52460:1 53261:1 55073:1 55311:1 59826:1 60611:1 61589:1 63886:1 66911:1 67171:1 67808:1 69924:1 73142:1 75270:1 76051:1 77987:1 78015:1 78049:1 78070:1 78087:1 78125:1 78150:1 78191:1 78307:1 78593:1 78854:1 79007:1 79378:1 80206:1 80498:1 80902:1 81730:1 86442:1 88853:1 92330:1 93502:1 95552:1 
1526.11803934153 0 704.846158537862 65:1 1473:1 10328:1 10329:1 10330:1 10331:1 13488:1 15775:1 20044:1 22782:1 23515:1 23516:1 23517:1 23518:1 23533:1 23545:1 23546:1 23547:1 23548:1 23555:1 23888:1 25593:1 28127:1 33809:1 35674:1 38357:1 40213:1 44489:1 44610:1 44811:1 45221:1 46306:1 47490:1 47533:1 47613:1 47664:1 47850:1 48355:1 49479:1 51050:1 55136:1 56658:1 58753:1 63598:1 64858:1 65663:1 69785:1 70380:1 73319:1 77985:1 78018:1 78052:1 78070:1 78080:1 78189:1 78347:1 78634:1 78847:1 80178:1 80538:1 86231:1 88102:1 90815:1 92669:1 103261:1 
1081.798003324246 0 0 487:1 2048:1 3439:1 4116:1 8679:1 10212:1 12449:1 15023:1 16079:1 18890:1 21882:1 23148:1 23474:1 23480:1 23498:1 23518:1 23519:1 24010:1 25198:1 26797:1 27420:1 31434:1 33221:1 33929:1 35262:1 37016:1 37650:1 40480:1 42218:1 44345:1 44491:1 44698:1 44931:1 45481:1 45806:1 46643:1 47034:1 47513:1 47593:1 47653:1 47737:1 47860:1 47953:1 48022:1 48454:1 49250:1 50390:1 50677:1 52645:1 54734:1 56298:1 57775:1 58215:1 60859:1 63833:1 64833:1 65348:1 65663:1 67198:1 69384:1 70949:1 72344:1 73319:1 75355:1 77974:1 78014:1 78052:1 78070:1 78102:1 78121:1 78143:1 78178:1 78286:1 78630:1 78869:1 79187:1 79300:1 79630:1 80050:1 80477:1 81046:1 81910:1 83349:1 84532:1 86353:1 87687:1 89469:1 90108:1 93817:1 94683:1 96855:1 98654:1 100229:1 102009:1 108110:1 110175:1 
1926.217542229154 432.6515436584546 827.2219061154078 487:1 1589:1 3108:1 4823:1 7609:1 8966:1 13767:1 15178:1 20369:1 22059:1 23474:1 23518:1 23535:1 23557:1 24010:1 24116:1 26354:1 28127:1 30756:1 31928:1 33929:1 34146:1 36565:1 38357:1 41287:1 42728:1 43100:1 44489:1 44690:1 44987:1 45474:1 45962:1 46636:1 47351:1 47513:1 47593:1 47653:1 47715:1 47879:1 47953:1 47967:1 48454:1 48596:1 50101:1 51050:1 52603:1 53623:1 55376:1 57370:1 58753:1 60815:1 62045:1 63833:1 64483:1 65289:1 65663:1 67273:1 68437:1 70583:1 71860:1 73319:1 75407:1 75711:1 77974:1 78014:1 78052:1 78070:1 78072:1 78124:1 78150:1 78178:1 78286:1 78630:1 78839:1 78891:1 79347:1 80029:1 80477:1 81046:1 81614:1 82002:1 86353:1 86559:1 88999:1 90815:1 93757:1 95215:1 95552:1 98716:1 99216:1 106964:1 
415.0992023903214 337.1126266879444 2000 4115:1 7258:1 8610:1 9829:1 13554:1 20133:1 23471:1 23479:1 23518:1 27419:1 30420:1 31304:1 32739:1 37649:1 40928:1 42079:1 43840:1 44489:1 44987:1 45962:1 47368:1 47715:1 47879:1 47953:1 48022:1 50677:1 52393:1 53163:1 54389:1 58215:1 60535:1 62938:1 65656:1 67420:1 67993:1 69437:1 73549:1 75152:1 77388:1 78070:1 78099:1 78121:1 78163:1 78866:1 79126:1 79311:1 79836:1 81849:1 82888:1 83401:1 85274:1 90107:1 93378:1 94540:1 96346:1 107964:1 109823:1 
2000 2000 564.5745451645244 89:1 4823:1 7527:1 9060:1 9749:1 12449:1 15221:1 18890:1 22118:1 23474:1 23479:1 23515:1 23518:1 24010:1 28127:1 30673:1 32068:1 32630:1 33929:1 38357:1 41204:1 42877:1 43722:1 44489:1 44626:1 44987:1 45962:1 47368:1 47492:1 47715:1 47879:1 47953:1 48022:1 48454:1 51050:1 52545:1 53704:1 54283:1 58753:1 60735:1 62824:1 63833:1 65663:1 67235:1 68462:1 68827:1 73319:1 75359:1 77227:1 77974:1 78070:1 78097:1 78108:1 78158:1 78178:1 78864:1 79090:1 79231:1 79766:1 80045:1 81813:1 82735:1 83175:1 84979:1 86353:1 90815:1 93665:1 95370:1 96225:1 98716:1 106884:1 108628:1 
0 852.6902174055419 0 89:1 5298:1 7514:1 10087:1 15041:1 15155:1 21906:1 22031:1 23474:1 23498:1 23515:1 23518:1 24010:1 28578:1 30659:1 33053:1 33929:1 38808:1 41188:1 41505:1 44172:1 44489:1 44626:1 44987:1 45962:1 47368:1 47492:1 47715:1 47879:1 47953:1 48022:1 48454:1 51274:1 52537:1 53164:1 54629:1 59108:1 60721:1 61462:1 63240:1 63833:1 65933:1 67448:1 68309:1 69425:1 73767:1 75241:1 75958:1 77761:1 77974:1 78070:1 78097:1 78141:1 78158:1 78178:1 78864:1 79110:1 79600:1 79766:1 80045:1 81833:1 82851:1 84430:1 84975:1 86353:1 91266:1 93651:1 94558:1 96680:1 98750:1 106872:1 107978:1 110035:1 
1335.788300599886 0 423.4365300589944 487:1 1834:1 3282:1 9772:1 12705:1 13554:1 15041:1 19174:1 20133:1 21906:1 23474:1 23475:1 23518:1 23555:1 24010:1 24643:1 26585:1 32660:1 33929:1 34683:1 36796:1 40208:1 42995:1 43756:1 44489:1 44690:1 44970:1 45474:1 45888:1 46636:1 47199:1 47513:1 47593:1 47653:1 47715:1 47847:1 47953:1 48022:1 48454:1 48920:1 50248:1 50549:1 53792:1 54316:1 57572:1 62858:1 63833:1 64189:1 65505:1 66070:1 68553:1 68862:1 72235:1 74406:1 77262:1 77974:1 78014:1 78052:1 78070:1 78074:1 78139:1 78170:1 78178:1 78286:1 78630:1 78841:1 78917:1 79566:1 79929:1 80030:1 80477:1 81046:1 81640:1 82139:1 84328:1 85560:1 86353:1 87099:1 89240:1 92666:1 95501:1 96258:1 99673:1 105617:1 108865:1 
16.7070956832571 0 0 89:1 6626:1 7171:1 8736:1 12705:1 13554:1 19174:1 20133:1 23474:1 23498:1 23515:1 23518:1 24010:1 29876:1 30338:1 31557:1 33929:1 40106:1 40830:1 42343:1 43269:1 44491:1 44628:1 44935:1 45828:1 47090:1 47492:1 47737:1 47879:1 47953:1 48022:1 48454:1 51850:1 52330:1 53376:1 54675:1 59977:1 60465:1 61707:1 63833:1 66709:1 67177:1 68302:1 69362:1 72486:1 75026:1 76203:1 77974:1 78070:1 78100:1 78134:1 78176:1 78178:1 78867:1 79143:1 79507:1 79996:1 80048:1 81866:1 82941:1 84167:1 85713:1 86353:1 92564:1 93281:1 94811:1 96758:1 98888:1 106493:1 
0 987.4144609980731 2000 246:1 1889:1 5404:1 12774:1 12791:1 19250:1 19271:1 23471:1 23474:1 23518:1 23533:1 23538:1 23555:1 23740:1 24769:1 28693:1 33650:1 34818:1 38923:1 40213:1 44489:1 44690:1 44973:1 45474:1 46265:1 47513:1 47593:1 47608:1 47715:1 47850:1 48240:1 48993:1 51301:1 55946:1 59170:1 63655:1 64420:1 64899:1 66175:1 70887:1 74507:1 77984:1 78017:1 78050:1 78070:1 78080:1 78188:1 78323:1 78610:1 78847:1 80150:1 80514:1 80983:1 86075:1 87236:1 91381:1 92669:1 99796:1 
88.54677346173007 0 1678.883130277118 4694:1 11767:1 12155:1 13652:1 15542:1 18054:1 18516:1 20243:1 22497:1 23516:1 23518:1 23521:1 23524:1 23543:1 23552:1 23554:1 23555:1 23556:1 28001:1 33356:1 35868:1 38231:1 40200:1 41376:1 44489:1 44518:1 44969:1 45266:1 45869:1 46190:1 47148:1 47478:1 47558:1 47605:1 47715:1 47846:1 47888:1 47988:1 49444:1 50979:1 54454:1 56599:1 58643:1 63003:1 66854:1 69005:1 72806:1 77328:1 77980:1 78018:1 78043:1 78070:1 78082:1 78110:1 78159:1 78184:1 78343:1 78570:1 78849:1 78959:1 79250:1 79794:1 80122:1 80534:1 80855:1 81682:1 82220:1 83254:1 85123:1 85791:1 88306:1 90689:1 92658:1 93861:1 105240:1 
0 0 95.8510804088039 6163:1 11169:1 14759:1 17339:1 21547:1 23498:1 23516:1 23518:1 23534:1 23543:1 23552:1 23554:1 23555:1 23556:1 29420:1 33356:1 35861:1 39650:1 40200:1 41381:1 44489:1 44518:1 44969:1 45266:1 45870:1 46114:1 47478:1 47558:1 47602:1 47715:1 47846:1 47891:1 49317:1 51641:1 59676:1 64067:1 66125:1 74309:1 77980:1 78018:1 78046:1 78070:1 78082:1 78115:1 78184:1 78343:1 78579:1 78849:1 78963:1 80122:1 80534:1 80877:1 81686:1 85791:1 88300:1 92108:1 92658:1 93864:1 97164:1 104462:1 105242:1 
0 1650.457184025746 703.7414209721079 11367:1 12593:1 13981:1 15244:1 17577:1 19047:1 20609:1 22144:1 23516:1 23518:1 23520:1 23543:1 23552:1 23554:1 23555:1 23557:1 33356:1 35866:1 40200:1 43040:1 44491:1 44519:1 44922:1 45267:1 46135:1 47478:1 47558:1 47604:1 47737:1 47846:1 47919:1 47962:1 51054:1 53439:1 58762:1 66207:1 73375:1 77980:1 78018:1 78039:1 78070:1 78082:1 78125:1 78151:1 78184:1 78343:1 78542:1 78849:1 78969:1 79379:1 79690:1 80122:1 80534:1 80796:1 81692:1 82245:1 83711:1 84684:1 85791:1 88305:1 92658:1 95543:1 
0 0 179.5087586344676 4640:1 12966:1 13981:1 19467:1 20609:1 23498:1 23516:1 23518:1 23534:1 23543:1 23552:1 23554:1 23555:1 23556:1 27958:1 33356:1 35861:1 38188:1 40200:1 41381:1 44489:1 44518:1 44969:1 45266:1 45870:1 46114:1 47478:1 47558:1 47602:1 47715:1 47846:1 47891:1 49192:1 50953:1 58603:1 64344:1 65933:1 74015:1 77980:1 78018:1 78046:1 78070:1 78082:1 78115:1 78184:1 78343:1 78579:1 78849:1 78963:1 80122:1 80534:1 80877:1 81686:1 85791:1 88300:1 90646:1 92658:1 93864:1 97107:1 103115:1 105242:1 
613.8164252652357 0 775.448732226557 487:1 2269:1 2734:1 7196:1 8087:1 10681:1 11757:1 13877:1 16740:1 18036:1 20491:1 23473:1 23474:1 23486:1 23512:1 23518:1 23520:1 23532:1 24010:1 25618:1 25837:1 30364:1 31624:1 33929:1 35700:1 36039:1 40860:1 42416:1 43164:1 44493:1 44747:1 45047:1 45520:1 46022:1 46673:1 47513:1 47593:1 47653:1 47822:1 47879:1 47912:1 48022:1 48454:1 49708:1 51779:1 53420:1 56893:1 59884:1 61778:1 63833:1 65053:1 66858:1 68152:1 72121:1 73983:1 76351:1 77974:1 78024:1 78059:1 78070:1 78086:1 78125:1 78176:1 78178:1 78393:1 78793:1 78853:1 78988:1 79401:1 79998:1 80036:1 80584:1 81505:1 81711:1 82311:1 83832:1 85728:1 86353:1 88131:1 88455:1 93308:1 94883:1 95802:1 100672:1 101189:1 106533:1 
165.0889657268418 0 0 487:1 1677:1 2871:1 10333:1 11757:1 11798:1 13877:1 18036:1 18089:1 20491:1 23474:1 23500:1 23518:1 23520:1 23550:1 23555:1 23557:1 24010:1 24331:1 26030:1 33929:1 34367:1 36238:1 40199:1 43041:1 44493:1 44707:1 44895:1 45489:1 45699:1 46650:1 46878:1 47513:1 47593:1 47653:1 47749:1 47845:1 47901:1 47963:1 48454:1 49838:1 50988:1 57076:1 58670:1 63833:1 65192:1 66125:1 72262:1 74414:1 77974:1 78014:1 78052:1 78070:1 78081:1 78125:1 78152:1 78178:1 78286:1 78630:1 78848:1 78954:1 79380:1 79711:1 80034:1 80477:1 81046:1 81677:1 82207:1 83731:1 86353:1 86776:1 88647:1 92657:1 95544:1 99415:1 101356:1 
0 2000 2000 23518:1 23522:1 23526:1 23540:1 23552:1 33367:1 44491:1 44556:1 44928:1 47483:1 47737:1 47854:1 50667:1 52011:1 58198:1 60095:1 65942:1 72912:1 77978:1 78070:1 78106:1 78182:1 78873:1 80116:1 85803:1 
643.1393404897194 2000 2000 7615:1 11901:1 14919:1 18228:1 21762:1 23518:1 23521:1 23535:1 30761:1 41292:1 44491:1 44935:1 45828:1 47077:1 47737:1 47879:1 47953:1 47983:1 51426:1 53577:1 54517:1 59345:1 66736:1 73451:1 78070:1 78095:1 78131:1 78158:1 78862:1 79087:1 79539:1 79769:1 81810:1 82719:1 84253:1 85000:1 93764:1 
1027.392047633316 709.9535594308543 0 6775:1 8388:1 11279:1 12167:1 17473:1 18531:1 23518:1 23519:1 23521:1 30134:1 30915:1 32417:1 40618:1 41683:1 43511:1 44492:1 44910:1 47744:1 47860:1 47953:1 47983:1 50589:1 52197:1 52891:1 54135:1 58056:1 60286:1 62622:1 65576:1 67351:1 67801:1 69058:1 75331:1 77274:1 78070:1 78089:1 78107:1 78156:1 78856:1 79014:1 79216:1 79742:1 81737:1 82423:1 83122:1 84890:1 85785:1 85787:1 93056:1 94138:1 95994:1 106287:1 107686:1 109589:1 
0 7.372816363735727 0 3859:1 7084:1 8625:1 10860:1 12056:1 14661:1 16964:1 18406:1 21415:1 23498:1 23518:1 23521:1 23542:1 27180:1 30251:1 31323:1 37410:1 40740:1 42097:1 44489:1 44987:1 45962:1 47357:1 47715:1 47879:1 47953:1 47984:1 50589:1 52262:1 53168:1 54133:1 58056:1 60384:1 61469:1 65944:1 67252:1 68389:1 72774:1 75315:1 75960:1 78070:1 78097:1 78121:1 78159:1 78864:1 79097:1 79308:1 79799:1 81820:1 82751:1 83382:1 85150:1 89868:1 93185:1 94566:1 106374:1 
0 520.5701857309268 0 486:1 2162:1 2519:1 3859:1 7388:1 9072:1 13462:1 14241:1 14519:1 15134:1 20015:1 20894:1 21224:1 21948:1 23494:1 23498:1 23504:1 23517:1 23518:1 24009:1 25423:1 26307:1 27180:1 30536:1 32082:1 32904:1 33927:1 35497:1 36516:1 37410:1 41051:1 42890:1 44489:1 44690:1 44987:1 45474:1 45962:1 46435:1 47368:1 47513:1 47593:1 47619:1 47715:1 47879:1 47953:1 48022:1 48453:1 49373:1 50068:1 50589:1 52469:1 54524:1 55252:1 56484:1 57325:1 58056:1 60619:1 63093:1 63667:1 63967:1 65104:1 65944:1 67369:1 69274:1 69857:1 71151:1 71929:1 72774:1 75200:1 77589:1 77984:1 78026:1 78053:1 78070:1 78099:1 78130:1 78166:1 78188:1 78405:1 78668:1 78866:1 79132:1 79454:1 79959:1 80166:1 80596:1 81214:1 81855:1 82915:1 83979:1 85648:1 86352:1 87906:1 88946:1 89868:1 93514:1 95388:1 100404:1 106737:1 
1397.454503587531 0 2000 487:1 1902:1 3482:1 12615:1 13223:1 16281:1 19072:1 19745:1 23401:1 23474:1 23500:1 23518:1 23535:1 23557:1 24010:1 24792:1 26843:1 30438:1 33929:1 34840:1 37073:1 40947:1 43100:1 44489:1 44690:1 44987:1 45474:1 45962:1 46636:1 47351:1 47513:1 47593:1 47653:1 47715:1 47879:1 47953:1 47967:1 48454:1 50427:1 51190:1 52406:1 53300:1 57816:1 58970:1 60550:1 61629:1 63833:1 65352:1 67190:1 68192:1 72225:1 75054:1 76534:1 77974:1 78014:1 78060:1 78070:1 78087:1 78124:1 78150:1 78178:1 78286:1 78722:1 78854:1 79006:1 79347:1 80037:1 80477:1 81352:1 81729:1 82384:1 86353:1 87261:1 89529:1 93398:1 95552:1 99829:1 102064:1 
0 407.3455742722693 1764.937315322328 129:1 3155:1 7169:1 8621:1 9986:1 11911:1 12286:1 12705:1 14433:1 15746:1 18240:1 18803:1 19164:1 21129:1 22746:1 23476:1 23518:1 23597:1 24542:1 26423:1 30338:1 31288:1 32944:1 33511:1 34583:1 36633:1 40831:1 42065:1 44060:1 44491:1 44698:1 44935:1 45481:1 45828:1 46643:1 47090:1 47513:1 47593:1 47653:1 47737:1 47879:1 47953:1 48022:1 48823:1 51441:1 52328:1 53164:1 54554:1 55734:1 59362:1 61461:1 63126:1 64560:1 66152:1 67265:1 68514:1 69279:1 71292:1 74310:1 76401:1 77592:1 77984:1 78017:1 78049:1 78070:1 78101:1 78134:1 78158:1 78188:1 78323:1 78594:1 78868:1 79159:1 79498:1 79766:1 80168:1 80514:1 80907:1 81882:1 83000:1 84134:1 84979:1 85782:1 85940:1 86991:1 89076:1 93279:1 94556:1 96561:1 99592:1 
2000 0 712.1886476638416 487:1 1902:1 3482:1 16281:1 23401:1 23474:1 23518:1 23533:1 23555:1 24010:1 24792:1 26843:1 33929:1 34840:1 37073:1 40213:1 44496:1 47513:1 47593:1 47653:1 47850:1 48454:1 50427:1 51109:1 57816:1 58853:1 63833:1 65352:1 65663:1 72225:1 73319:1 77974:1 78014:1 78060:1 78070:1 78080:1 78178:1 78286:1 78722:1 78847:1 80033:1 80477:1 81352:1 86353:1 87261:1 89529:1 92669:1 99829:1 102064:1 
37.78921609620748 0 0 487:1 1677:1 2970:1 6868:1 10903:1 12422:1 13480:1 13617:1 15918:1 18861:1 20033:1 20203:1 22962:1 23242:1 23474:1 23518:1 23520:1 23557:1 24010:1 24331:1 26156:1 30033:1 33929:1 34367:1 36359:1 40511:1 43046:1 44492:1 44705:1 44912:1 45488:1 46649:1 47513:1 47593:1 47653:1 47744:1 47879:1 47964:1 48454:1 49939:1 50622:1 52126:1 57191:1 58115:1 63833:1 65036:1 66125:1 67155:1 72004:1 74414:1 77974:1 78014:1 78062:1 78070:1 78071:1 78125:1 78145:1 78178:1 78286:1 78750:1 78838:1 78880:1 79373:1 79658:1 80028:1 80477:1 81413:1 81603:1 81954:1 83703:1 84643:1 86353:1 86776:1 88780:1 92954:1 95549:1 99415:1 109172:1 
1314.933315099721 0 0 118:1 3386:1 11073:1 12422:1 13617:1 17228:1 18861:1 20203:1 23476:1 23516:1 23518:1 23555:1 23585:1 26734:1 32801:1 33500:1 36950:1 40208:1 42992:1 44492:1 47513:1 47560:1 47653:1 47847:1 47953:1 48022:1 48118:1 48716:1 50343:1 53791:1 54451:1 55561:1 62279:1 62998:1 63586:1 64302:1 65471:1 66285:1 68043:1 69115:1 71279:1 73205:1 76014:1 76983:1 77973:1 78018:1 78037:1 78070:1 78074:1 78138:1 78171:1 78177:1 78337:1 78528:1 78841:1 78916:1 79558:1 79936:1 80010:1 80528:1 80754:1 81639:1 82131:1 85580:1 85928:1 89395:1 92666:1 95498:1 105615:1 
0 0 888.1019968450313 1683:1 3386:1 5799:1 8388:1 10154:1 10708:1 10903:1 11200:1 13521:1 16777:1 17378:1 20090:1 23288:1 23471:1 23476:1 23498:1 23518:1 23552:1 23555:1 24345:1 26734:1 29074:1 30915:1 33142:1 33366:1 34384:1 36950:1 39304:1 40208:1 41683:1 44262:1 44489:1 44541:1 44970:1 45420:1 45888:1 46595:1 47199:1 47481:1 47593:1 47653:1 47715:1 47847:1 47953:1 48022:1 48734:1 50343:1 51484:1 52891:1 54687:1 55580:1 59418:1 63319:1 64722:1 65471:1 66867:1 67801:1 68972:1 70605:1 73985:1 77272:1 77975:1 78017:1 78037:1 78070:1 78074:1 78107:1 78156:1 78179:1 78317:1 78527:1 78841:1 78896:1 79216:1 79742:1 80055:1 80508:1 80744:1 81619:1 82015:1 83122:1 84894:1 85770:1 85801:1 86792:1 89395:1 91762:1 92666:1 94138:1 96776:1 97410:1 99432:1 101846:1 105424:1 
87.5206736633131 0 0 487:1 2027:1 2827:1 4343:1 8611:1 9804:1 10331:1 11449:1 12345:1 13475:1 14416:1 17679:1 18774:1 20028:1 21112:1 23474:1 23475:1 23498:1 23518:1 23548:1 24010:1 25167:1 25974:1 27673:1 31305:1 32696:1 33929:1 35228:1 36185:1 37903:1 42080:1 43794:1 44489:1 44665:1 44820:1 45456:1 45645:1 46623:1 46829:1 47513:1 47593:1 47653:1 47664:1 47879:1 47953:1 48022:1 48454:1 49810:1 50800:1 52462:1 53163:1 57035:1 58395:1 60613:1 61454:1 63833:1 65039:1 66306:1 67301:1 68351:1 72005:1 73901:1 75278:1 76375:1 77974:1 78014:1 78052:1 78070:1 78089:1 78124:1 78155:1 78178:1 78286:1 78630:1 78856:1 79028:1 79351:1 79724:1 80039:1 80477:1 81046:1 81751:1 82497:1 83558:1 84790:1 85783:1 86353:1 87653:1 88593:1 90361:1 94541:1 96296:1 98679:1 100190:1 107968:1 
2000 0 2000 487:1 1844:1 7101:1 12121:1 12205:1 18585:1 23474:1 23518:1 23525:1 23534:1 23556:1 24010:1 24665:1 30269:1 33929:1 34703:1 40759:1 41381:1 44489:1 47513:1 47593:1 47653:1 47879:1 47891:1 48454:1 48925:1 49892:1 52275:1 55850:1 60401:1 63833:1 64659:1 65347:1 67305:1 70407:1 75417:1 77974:1 78014:1 78052:1 78070:1 78089:1 78115:1 78178:1 78286:1 78630:1 78856:1 79021:1 80039:1 80477:1 81046:1 81744:1 86353:1 87124:1 93202:1 93864:1 99704:1 
1901.618578354608 0 1535.540167741465 487:1 1677:1 7196:1 9512:1 10339:1 13475:1 15221:1 20028:1 22118:1 23474:1 23483:1 23517:1 23518:1 23541:1 24010:1 24331:1 30364:1 32311:1 33929:1 34367:1 40860:1 41609:1 43401:1 44495:1 47513:1 47593:1 47619:1 47760:1 47879:1 47895:1 48022:1 48454:1 50070:1 50800:1 52713:1 57327:1 60930:1 63833:1 65404:1 66751:1 67743:1 71716:1 72709:1 75543:1 77974:1 78014:1 78053:1 78070:1 78086:1 78137:1 78155:1 78178:1 78286:1 78659:1 78853:1 78994:1 79575:1 79715:1 80036:1 80477:1 81180:1 81717:1 82341:1 84361:1 84755:1 86353:1 86776:1 93308:1 93918:1 95885:1 99415:1 106512:1 109517:1 
1035.587170788072 0 0 487:1 2027:1 8729:1 9732:1 13373:1 13401:1 13431:1 16076:1 19908:1 19939:1 19990:1 23143:1 23474:1 23475:1 23480:1 23518:1 23524:1 23555:1 24010:1 25167:1 31527:1 32605:1 33929:1 35228:1 40208:1 43697:1 44494:1 47513:1 47593:1 47847:1 47953:1 48022:1 48454:1 50390:1 51428:1 53347:1 54270:1 57774:1 59346:1 61674:1 63833:1 65088:1 66330:1 67936:1 68998:1 71653:1 73048:1 76166:1 77974:1 78014:1 78052:1 78070:1 78074:1 78134:1 78155:1 78178:1 78286:1 78630:1 78841:1 78912:1 79496:1 79724:1 80030:1 80477:1 81046:1 81635:1 82115:1 84124:1 84794:1 86353:1 87653:1 92666:1 94786:1 96194:1 100190:1 105517:1 
1985.816386766482 0 0 351:1 2254:1 8679:1 9356:1 10331:1 14328:1 14594:1 15629:1 21009:1 21327:1 22610:1 23475:1 23487:1 23518:1 23521:1 23548:1 23850:1 25597:1 26502:1 31434:1 32930:1 33768:1 35679:1 42218:1 44046:1 44489:1 44665:1 44820:1 45456:1 45645:1 46623:1 46827:1 47513:1 47593:1 47653:1 47664:1 47879:1 47953:1 47983:1 48335:1 49481:1 50198:1 54542:1 55113:1 57494:1 63113:1 63652:1 64735:1 64981:1 69373:1 69732:1 77807:1 77985:1 78005:1 78059:1 78070:1 78089:1 78121:1 78159:1 78189:1 78224:1 78784:1 78856:1 79025:1 79308:1 79796:1 80184:1 80415:1 81477:1 81748:1 82472:1 83379:1 85133:1 86195:1 88106:1 94683:1 96547:1 100600:1 108106:1 
0 0 1191.335182085379 2795:1 6868:1 10331:1 10900:1 10903:1 11966:1 15810:1 17017:1 18308:1 19543:1 22821:1 23516:1 23518:1 23520:1 23548:1 23552:1 23557:1 25922:1 30033:1 33366:1 36132:1 40511:1 43046:1 44489:1 44537:1 44820:1 45644:1 46815:1 47481:1 47551:1 47653:1 47664:1 47879:1 47919:1 47964:1 48834:1 52126:1 53706:1 55744:1 62184:1 67155:1 68454:1 75712:1 77975:1 78018:1 78049:1 78070:1 78071:1 78125:1 78145:1 78179:1 78338:1 78595:1 78838:1 78880:1 79373:1 79645:1 80054:1 80529:1 80915:1 81603:1 81954:1 83692:1 85801:1 88542:1 92954:1 95549:1 
144.4193648650551 2000 1972.929418337252 118:1 9560:1 10329:1 11966:1 12856:1 15062:1 18308:1 19347:1 21926:1 23516:1 23518:1 23520:1 23527:1 23546:1 23554:1 23555:1 23585:1 32380:1 33500:1 35866:1 40208:1 43472:1 44491:1 44698:1 44923:1 45231:1 46131:1 47513:1 47533:1 47604:1 47737:1 47847:1 48022:1 48118:1 51737:1 59832:1 63586:1 66744:1 68170:1 76436:1 77973:1 78018:1 78039:1 78070:1 78074:1 78122:1 78155:1 78177:1 78337:1 78542:1 78841:1 78902:1 79324:1 79724:1 80010:1 80528:1 80794:1 81625:1 82044:1 83456:1 84790:1 85928:1 88305:1 92666:1 95957:1 
1405.360544873304 0 0 487:1 1677:1 10899:1 13936:1 17016:1 20558:1 23474:1 23517:1 23518:1 23533:1 23555:1 24010:1 24331:1 33929:1 34367:1 40213:1 44493:1 44707:1 44897:1 45489:1 47513:1 47593:1 47749:1 47850:1 48454:1 51083:1 58808:1 63833:1 66333:1 73050:1 77974:1 78014:1 78052:1 78070:1 78080:1 78178:1 78286:1 78630:1 78847:1 80033:1 80477:1 81046:1 86353:1 86776:1 92669:1 99415:1 
584.8144981457184 0 0 1575:1 3385:1 6719:1 7129:1 10111:1 10335:1 12345:1 15134:1 15221:1 18776:1 22005:1 22118:1 23498:1 23536:1 23556:1 24098:1 26733:1 28141:1 30296:1 33090:1 33409:1 34127:1 36948:1 38371:1 40788:1 41376:1 44215:1 44491:1 45077:1 47485:1 47593:1 47653:1 47839:1 47879:1 47888:1 48022:1 48067:1 48582:1 50342:1 51054:1 52297:1 54657:1 55359:1 57712:1 58762:1 60428:1 63277:1 63546:1 64578:1 65137:1 66782:1 67194:1 68964:1 70163:1 72321:1 74358:1 75305:1 77779:1 78003:1 78014:1 78049:1 78070:1 78089:1 78110:1 78169:1 78207:1 78299:1 78592:1 78856:1 79016:1 79255:1 79908:1 80389:1 80490:1 80899:1 81739:1 82447:1 83281:1 85499:1 85846:1 86540:1 89394:1 90829:1 93236:1 93861:1 96720:1 99199:1 
511.3216992087706 0 0 89:1 4834:1 7475:1 8508:1 9940:1 10903:1 14865:1 17020:1 21690:1 23474:1 23498:1 23515:1 23518:1 24010:1 28140:1 30620:1 31058:1 32885:1 33929:1 38370:1 41139:1 41839:1 43996:1 44489:1 44626:1 44987:1 45962:1 47368:1 47492:1 47715:1 47879:1 47953:1 48022:1 48454:1 51054:1 52508:1 53030:1 54511:1 58762:1 60681:1 61277:1 63833:1 65969:1 67416:1 68506:1 69199:1 74126:1 75285:1 76400:1 77974:1 78070:1 78089:1 78123:1 78163:1 78178:1 78856:1 79027:1 79338:1 79847:1 80039:1 81750:1 82486:1 83501:1 85321:1 86353:1 90828:1 93608:1 94370:1 96504:1 107865:1 109909:1 
0 934.4366484080849 351.6851642991712 4834:1 7503:1 10329:1 10337:1 12543:1 14733:1 15134:1 18991:1 21510:1 21948:1 23489:1 23498:1 23516:1 23518:1 23534:1 23538:1 23546:1 23552:1 23556:1 28140:1 30654:1 33366:1 38370:1 41179:1 41381:1 44489:1 44541:1 44987:1 45205:1 45943:1 47481:1 47533:1 47608:1 47715:1 47879:1 47891:1 51054:1 52528:1 58762:1 60711:1 64917:1 65969:1 67143:1 74126:1 75352:1 77975:1 78018:1 78069:1 78070:1 78097:1 78115:1 78179:1 78338:1 78831:1 78864:1 79095:1 80068:1 80529:1 81580:1 81818:1 85801:1 90828:1 93640:1 93864:1 97331:1 103272:1 106837:1 
324.9529406424271 1729.380161172549 2000 10331:1 23518:1 23548:1 44489:1 47664:1 51434:1 59355:1 66368:1 78070:1 
777.3729555766873 0 356.6299983994935 487:1 2027:1 3218:1 10094:1 14601:1 15134:1 15661:1 21337:1 22006:1 22647:1 23474:1 23475:1 23507:1 23518:1 23520:1 23555:1 24010:1 25167:1 26503:1 33069:1 33929:1 35228:1 36718:1 40208:1 44193:1 44496:1 47513:1 47593:1 47653:1 47847:1 47919:1 48022:1 48454:1 50198:1 50616:1 54646:1 57495:1 58092:1 63258:1 63833:1 65088:1 66460:1 68041:1 68866:1 71653:1 74326:1 76504:1 77771:1 77974:1 78014:1 78052:1 78070:1 78074:1 78125:1 78171:1 78178:1 78286:1 78630:1 78841:1 78905:1 79397:1 79934:1 80030:1 80477:1 81046:1 81628:1 82076:1 83812:1 85573:1 85783:1 86353:1 87653:1 89157:1 92666:1 96699:1 100190:1 101711:1 
1078.228166952548 2000 334.8621455361584 10331:1 23512:1 23518:1 44491:1 47671:1 50767:1 58350:1 66879:1 72730:1 78070:1 
208.1431486348225 2000 1057.820809621948 1:1 763:1 7344:1 11434:1 14433:1 14877:1 17660:1 21129:1 21710:1 23482:1 23516:1 23518:1 23520:1 23558:1 24412:1 30496:1 33355:1 34455:1 41008:1 41614:1 44491:1 44509:1 44935:1 45308:1 45823:1 47070:1 47477:1 47550:1 47737:1 47879:1 47912:1 48022:1 48764:1 50686:1 53708:1 54608:1 55631:1 62187:1 64041:1 65671:1 67890:1 69408:1 70737:1 74477:1 76587:1 77988:1 78018:1 78070:1 78086:1 78137:1 78167:1 78192:1 78349:1 78853:1 78994:1 79582:1 79887:1 80226:1 80540:1 81717:1 82346:1 84377:1 85455:1 85790:1 86863:1 93469:1 95384:1 99487:1 106704:1 
755.0055059116494 733.0077141936008 1342.573611077165 1878:1 2955:1 7566:1 11177:1 12739:1 13563:1 15134:1 15460:1 17347:1 19212:1 20142:1 21948:1 22398:1 23476:1 23518:1 23520:1 23521:1 23534:1 23552:1 24751:1 26142:1 30712:1 33366:1 36343:1 41242:1 44489:1 44541:1 44987:1 45420:1 45949:1 46595:1 47330:1 47481:1 47593:1 47653:1 47715:1 47879:1 47912:1 47988:1 48981:1 49932:1 51352:1 52576:1 54362:1 55932:1 60775:1 62915:1 64138:1 65115:1 65704:1 67351:1 70473:1 73737:1 75374:1 77975:1 78017:1 78049:1 78070:1 78089:1 78124:1 78159:1 78179:1 78317:1 78594:1 78856:1 79028:1 79355:1 79805:1 80063:1 80508:1 80906:1 81751:1 82501:1 83604:1 85177:1 85785:1 85801:1 87217:1 88758:1 93710:1 
491.7825904765105 2000 112.5615049646547 2968:1 7503:1 14435:1 15134:1 21131:1 21948:1 23516:1 23518:1 23520:1 23535:1 23552:1 23557:1 26155:1 30654:1 33366:1 34110:1 36357:1 41179:1 41614:1 43100:1 44492:1 44544:1 44912:1 45324:1 45730:1 46561:1 46911:1 47481:1 47550:1 47653:1 47744:1 47879:1 47912:1 47967:1 49067:1 49937:1 51679:1 52528:1 53708:1 56052:1 57190:1 60711:1 62187:1 64801:1 65415:1 66750:1 67143:1 67890:1 70625:1 71748:1 73831:1 75352:1 76587:1 77975:1 78031:1 78049:1 78070:1 78097:1 78137:1 78150:1 78179:1 78478:1 78602:1 78864:1 79109:1 79573:1 80068:1 80669:1 80944:1 81832:1 82842:1 85801:1 87371:1 88778:1 93640:1 95384:1 95552:1 99930:1 106861:1 108708:1 
1639.864757861586 2000 1323.511015526835 2254:1 3155:1 7167:1 9088:1 9491:1 12209:1 12237:1 12705:1 12708:1 15939:1 18593:1 19117:1 19178:1 22966:1 23475:1 23476:1 23518:1 23723:1 25597:1 26423:1 30338:1 32108:1 32292:1 35679:1 36633:1 40829:1 43378:1 44491:1 44698:1 44935:1 45481:1 45828:1 46643:1 47090:1 47513:1 47593:1 47653:1 47737:1 47879:1 47953:1 48022:1 48222:1 49481:1 52326:1 53725:1 54029:1 54999:1 62210:1 63799:1 64735:1 65656:1 67264:1 68053:1 68834:1 69527:1 76509:1 77996:1 78005:1 78049:1 78070:1 78097:1 78134:1 78142:1 78199:1 78229:1 78589:1 78864:1 79108:1 79491:1 79623:1 80326:1 80420:1 80894:1 81831:1 82829:1 84115:1 88106:1 89076:1 93277:1 95409:1 95861:1 101650:1 
876.7941949603635 0 459.264639385714 1274:1 7337:1 10331:1 10393:1 10846:1 11025:1 14333:1 16410:1 16968:1 17168:1 21014:1 23478:1 23489:1 23516:1 23518:1 23548:1 23565:1 25211:1 28972:1 30488:1 30974:1 32360:1 35276:1 39202:1 41001:1 43453:1 44489:1 44665:1 44820:1 45352:1 45645:1 46829:1 47513:1 47550:1 47664:1 47879:1 47953:1 48022:1 48100:1 49259:1 52937:1 54096:1 54870:1 56309:1 61133:1 62568:1 63854:1 63997:1 68077:1 70522:1 76302:1 77997:1 78018:1 78070:1 78086:1 78133:1 78158:1 78200:1 78356:1 78853:1 78992:1 79483:1 79763:1 80333:1 80546:1 81715:1 82326:1 84089:1 87700:1 91660:1 93461:1 
291.2016976849814 1202.131700075385 2000 1:1 1218:1 2749:1 14078:1 15146:1 20714:1 22019:1 23470:1 23482:1 23516:1 23518:1 23533:1 23555:1 23558:1 25137:1 25854:1 33355:1 35195:1 36057:1 40213:1 44491:1 44509:1 44926:1 47477:1 47560:1 47653:1 47737:1 47850:1 49212:1 50690:1 56253:1 58228:1 64326:1 66152:1 70196:1 74310:1 77988:1 78018:1 78049:1 78070:1 78080:1 78192:1 78349:1 78595:1 78847:1 80224:1 80540:1 80921:1 85790:1 87620:1 88474:1 92669:1 
377.3122289751225 0 183.989401762648 89:1 4379:1 8443:1 10489:1 10983:1 14501:1 15500:1 15947:1 16534:1 17113:1 21199:1 22443:1 22997:1 23474:1 23494:1 23498:1 23515:1 23518:1 23521:1 24010:1 27686:1 31007:1 33929:1 37916:1 41786:1 44489:1 44626:1 44987:1 45962:1 47356:1 47492:1 47715:1 47879:1 47953:1 47983:1 48454:1 50811:1 52959:1 54761:1 58406:1 61163:1 63436:1 63833:1 65629:1 67347:1 68177:1 69094:1 74371:1 75669:1 77974:1 78070:1 78089:1 78132:1 78159:1 78178:1 78856:1 79036:1 79467:1 79799:1 80039:1 81759:1 82562:1 84025:1 85150:1 85768:1 86353:1 90374:1 94238:1 98680:1 
699.5095994473085 0 755.1794634200055 2271:1 7321:1 8370:1 9804:1 10458:1 12083:1 14092:1 14501:1 15755:1 16497:1 18438:1 20728:1 21199:1 22875:1 23499:1 23518:1 25588:1 30474:1 30883:1 32696:1 35668:1 40987:1 41649:1 43794:1 44489:1 44690:1 44987:1 45474:1 45962:1 46636:1 47368:1 47513:1 47593:1 47653:1 47715:1 47879:1 47953:1 48022:1 48366:1 49494:1 52432:1 52863:1 55152:1 56683:1 60578:1 61044:1 63599:1 64524:1 65251:1 66208:1 67247:1 68199:1 71289:1 75186:1 75896:1 77985:1 78026:1 78052:1 78070:1 78089:1 78124:1 78155:1 78189:1 78406:1 78641:1 78856:1 79028:1 79351:1 79724:1 80184:1 80597:1 81108:1 81751:1 82497:1 83558:1 84793:1 85779:1 88137:1 93445:1 94105:1 96296:1 106639:1 
1368.220736100012 0 0 487:1 2027:1 3063:1 9060:1 10004:1 10903:1 12345:1 13427:1 18774:1 19543:1 19970:1 23474:1 23475:1 23479:1 23518:1 23555:1 24010:1 25167:1 26296:1 32068:1 32963:1 33929:1 35228:1 36504:1 40208:1 42877:1 44080:1 44492:1 44705:1 44904:1 45488:1 45717:1 46649:1 46900:1 47513:1 47593:1 47653:1 47744:1 47847:1 47953:1 48022:1 48454:1 50059:1 51351:1 53704:1 54565:1 57315:1 59256:1 63145:1 63833:1 65039:1 66461:1 68462:1 68885:1 71500:1 74204:1 77310:1 77974:1 78014:1 78052:1 78070:1 78074:1 78108:1 78156:1 78178:1 78286:1 78630:1 78841:1 78897:1 79230:1 79742:1 80030:1 80477:1 81046:1 81620:1 82024:1 83168:1 84886:1 85783:1 86353:1 87653:1 88931:1 92666:1 95370:1 96581:1 100190:1 101562:1 105588:1 108660:1 
91.52602390183189 0 657.8477774317998 359:1 2260:1 3459:1 7140:1 9863:1 10339:1 10903:1 12439:1 13512:1 15263:1 18880:1 20075:1 22173:1 23288:1 23474:1 23518:1 23541:1 23859:1 25609:1 25879:1 30309:1 32778:1 33778:1 35691:1 36084:1 40799:1 41464:1 43886:1 44489:1 44690:1 44987:1 45474:1 45945:1 46636:1 47305:1 47513:1 47593:1 47653:1 47715:1 47879:1 47895:1 48022:1 49483:1 50411:1 52306:1 52750:1 54433:1 56668:1 57795:1 60440:1 62976:1 64564:1 65091:1 65660:1 67369:1 67686:1 69089:1 70506:1 72408:1 72760:1 75074:1 77433:1 77984:1 78005:1 78060:1 78070:1 78097:1 78141:1 78158:1 78188:1 78223:1 78720:1 78864:1 79110:1 79600:1 79775:1 80164:1 80414:1 81833:1 82851:1 84436:1 85047:1 86205:1 88119:1 89497:1 93247:1 93956:1 96391:1 109841:1 
63.92176859685073 822.7761790635973 0 2027:1 2628:1 7258:1 9863:1 13512:1 13554:1 15263:1 20075:1 20133:1 22173:1 23475:1 23517:1 23518:1 23541:1 25167:1 26632:1 30420:1 32778:1 35228:1 36850:1 40927:1 43886:1 44489:1 44690:1 44987:1 45474:1 45945:1 46435:1 47305:1 47513:1 47593:1 47619:1 47715:1 47879:1 47895:1 48022:1 50277:1 50713:1 52393:1 54433:1 57616:1 60535:1 62976:1 63715:1 65398:1 66502:1 67420:1 67649:1 69089:1 71552:1 74214:1 75152:1 75489:1 77433:1 77987:1 78014:1 78052:1 78070:1 78097:1 78141:1 78158:1 78191:1 78290:1 78630:1 78864:1 79110:1 79600:1 79775:1 80214:1 80481:1 81050:1 81833:1 82851:1 84436:1 85047:1 87653:1 89295:1 93378:1 96391:1 101787:1 109841:1 
0 2000 508.353606651827 10340:1 23518:1 23522:1 23527:1 23541:1 23542:1 23552:1 23555:1 33367:1 40208:1 44491:1 44556:1 44923:1 45766:1 46967:1 47483:1 47737:1 47847:1 47895:1 47969:1 51072:1 58781:1 66466:1 74205:1 77978:1 78070:1 78074:1 78141:1 78176:1 78182:1 78841:1 78919:1 79610:1 79998:1 80096:1 81642:1 82151:1 84470:1 85803:1 92666:1 
0 821.9600628136023 0 164:1 7615:1 10340:1 10903:1 11957:1 12527:1 14576:1 15983:1 18298:1 18973:1 21303:1 23036:1 23242:1 23518:1 23532:1 23542:1 23636:1 30761:1 31210:1 33554:1 35897:1 41292:1 43179:1 44492:1 44705:1 44912:1 45488:1 45733:1 46649:1 46916:1 47513:1 47593:1 47653:1 47744:1 47879:1 47953:1 47969:1 51304:1 53089:1 59180:1 61360:1 64764:1 66327:1 68391:1 73397:1 77984:1 78017:1 78069:1 78070:1 78095:1 78131:1 78176:1 78188:1 78323:1 78830:1 78862:1 79087:1 79550:1 79998:1 80162:1 80514:1 81571:1 81810:1 82725:1 84288:1 85726:1 85977:1 88445:1 93764:1 95685:1 
1484.489980674245 0 914.771873989025 487:1 2027:1 3158:1 8607:1 10088:1 10903:1 12705:1 13600:1 14198:1 15134:1 19117:1 20179:1 20850:1 21948:1 23242:1 23474:1 23475:1 23518:1 24010:1 25167:1 26427:1 31294:1 33069:1 33929:1 35228:1 36639:1 41343:1 42072:1 44190:1 44492:1 44705:1 44912:1 45488:1 45733:1 46649:1 46920:1 47513:1 47593:1 47653:1 47744:1 47879:1 47953:1 48022:1 48454:1 50150:1 51304:1 52652:1 53153:1 54639:1 57433:1 59180:1 61444:1 63249:1 63833:1 65154:1 66125:1 67541:1 68400:1 68813:1 71632:1 74414:1 76118:1 77766:1 77974:1 78014:1 78052:1 78070:1 78104:1 78128:1 78167:1 78178:1 78286:1 78630:1 78871:1 79430:1 79878:1 80052:1 80477:1 81046:1 86353:1 87653:1 89079:1 93827:1 94531:1 96688:1 100190:1 101654:1 
0 1059.647101733908 0 359:1 2091:1 8952:1 9773:1 14601:1 15134:1 15441:1 21337:1 21948:1 22397:1 23474:1 23518:1 23554:1 23555:1 23859:1 25284:1 31916:1 32661:1 33778:1 35352:1 35866:1 40208:1 42713:1 43758:1 44492:1 44705:1 44904:1 45488:1 45717:1 46168:1 46900:1 47513:1 47593:1 47604:1 47744:1 47847:1 47953:1 48022:1 49294:1 51304:1 53607:1 56362:1 59180:1 62023:1 64150:1 66114:1 67780:1 70233:1 72468:1 76573:1 77984:1 78017:1 78039:1 78070:1 78074:1 78132:1 78162:1 78188:1 78323:1 78541:1 78841:1 78910:1 79468:1 79831:1 80145:1 80514:1 80790:1 81633:1 82100:1 84034:1 85258:1 85782:1 86205:1 87778:1 88305:1 92666:1 95183:1 96259:1 100310:1 100949:1 105569:1 108476:1 
82.13239230584387 0 0 268:1 1956:1 3399:1 13426:1 13487:1 14160:1 19973:1 20040:1 20799:1 23500:1 23518:1 23520:1 23527:1 23555:1 23557:1 23762:1 24946:1 26748:1 33672:1 35002:1 36965:1 40199:1 43041:1 44497:1 47513:1 47593:1 47653:1 47845:1 47963:1 48264:1 49104:1 51351:1 56093:1 59256:1 63674:1 64294:1 66125:1 70244:1 74414:1 77989:1 78027:1 78058:1 78070:1 78081:1 78125:1 78152:1 78193:1 78423:1 78718:1 78848:1 78954:1 79380:1 79695:1 80614:1 81677:1 82207:1 83715:1 84698:1 86099:1 87427:1 89414:1 92657:1 95544:1 108964:1 
1078.65934492206 0 0 3005:1 5502:1 13426:1 19973:1 23498:1 23516:1 23518:1 23525:1 23543:1 23552:1 23555:1 23556:1 26207:1 28898:1 33356:1 36414:1 39128:1 40200:1 41376:1 44453:1 44489:1 47478:1 47653:1 47790:1 47846:1 47888:1 48022:1 49204:1 49982:1 51389:1 54811:1 56241:1 59306:1 63488:1 64302:1 65147:1 65556:1 69048:1 71279:1 74000:1 77273:1 77980:1 78018:1 78055:1 78070:1 78082:1 78110:1 78173:1 78184:1 78343:1 78685:1 78849:1 78959:1 79258:1 79963:1 80122:1 80534:1 81682:1 82223:1 83287:1 85791:1 88834:1 91586:1 92658:1 93861:1 96975:1 105240:1 107263:1 
2000 1162.418107872428 1260.067867167548 538:1 14160:1 20799:1 23497:1 23512:1 23517:1 23518:1 23524:1 23544:1 23552:1 23555:1 23556:1 23557:1 24064:1 33353:1 33991:1 40195:1 41367:1 43036:1 44491:1 44499:1 47475:1 47519:1 47677:1 47840:1 47886:1 47958:1 66654:1 77977:1 78020:1 78053:1 78070:1 78077:1 78116:1 78147:1 78181:1 78360:1 78663:1 78844:1 78929:1 79669:1 80085:1 80551:1 81652:1 84658:1 85788:1 86424:1 92653:1 93852:1 95539:1 99019:1 104973:1 
2000 1451.177882860076 382.7910545243467 9877:1 12280:1 13605:1 14159:1 18686:1 20185:1 20798:1 23518:1 23544:1 23552:1 23553:1 23554:1 23555:1 23556:1 32796:1 33353:1 33993:1 35856:1 40195:1 41368:1 43905:1 44493:1 47475:1 47521:1 47596:1 47749:1 47840:1 47887:1 48022:1 51351:1 54448:1 59256:1 62994:1 69082:1 77972:1 77977:1 78011:1 78042:1 78070:1 78077:1 78117:1 78158:1 78181:1 78844:1 79293:1 79758:1 80085:1 83339:1 84957:1 85788:1 86426:1 88295:1 92653:1 93853:1 96410:1 109852:1 
0 0 590.8751819971909 6493:1 10331:1 23498:1 23512:1 23518:1 23526:1 23540:1 29764:1 39994:1 40260:1 44491:1 44787:1 47671:1 47854:1 51794:1 51966:1 59895:1 60067:1 66460:1 66950:1 73417:1 74798:1 78070:1 78106:1 78873:1 92452:1 92720:1 
385.7071260776313 0 0 487:1 2027:1 2995:1 10903:1 12708:1 19178:1 19543:1 23474:1 23475:1 23518:1 23533:1 23555:1 24010:1 25167:1 26197:1 33929:1 35228:1 36404:1 40213:1 44493:1 47513:1 47593:1 47653:1 47850:1 48454:1 49974:1 50749:1 57227:1 58325:1 63833:1 65051:1 66136:1 71784:1 72556:1 77974:1 78014:1 78052:1 78070:1 78080:1 78178:1 78286:1 78630:1 78847:1 80033:1 80477:1 81046:1 86353:1 87653:1 88823:1 92669:1 100190:1 101457:1 
0 784.7341047333128 107.3802345389783 1750:1 2778:1 10976:1 13318:1 17105:1 23512:1 23518:1 23522:1 23533:1 23552:1 23555:1 24493:1 25893:1 33367:1 34535:1 36105:1 40213:1 44491:1 47483:1 47593:1 47653:1 47730:1 47850:1 48800:1 49751:1 50490:1 55686:1 56957:1 57891:1 64101:1 65150:1 65585:1 70229:1 72256:1 77978:1 78015:1 78052:1 78070:1 78080:1 78182:1 78303:1 78631:1 78847:1 80100:1 80494:1 81057:1 85803:1 86944:1 88516:1 92669:1 
58.97922599572704 0 0 2457:1 10331:1 10489:1 10759:1 12496:1 16535:1 16841:1 18939:1 23490:1 23517:1 23518:1 23533:1 23548:1 23555:1 24127:1 26162:1 34157:1 36365:1 40213:1 44489:1 44665:1 44811:1 45456:1 46433:1 47513:1 47593:1 47619:1 47664:1 47850:1 48130:1 48607:1 49947:1 50464:1 55387:1 57199:1 63704:1 64675:1 65258:1 69864:1 70922:1 72212:1 77987:1 78017:1 78053:1 78070:1 78080:1 78191:1 78325:1 78662:1 78847:1 80202:1 80516:1 81196:1 85765:1 88787:1 92669:1 
274.6636121020732 0 0 365:1 1676:1 3553:1 6849:1 8936:1 11152:1 14354:1 14861:1 14901:1 17320:1 21037:1 21682:1 21737:1 23498:1 23518:1 23535:1 23557:1 23865:1 24330:1 26553:1 26891:1 30015:1 31871:1 33786:1 34366:1 36761:1 37121:1 40492:1 42666:1 43100:1 44489:1 44690:1 44987:1 45474:1 45962:1 46636:1 47351:1 47513:1 47593:1 47653:1 47715:1 47879:1 47953:1 47967:1 48726:1 50225:1 50465:1 52111:1 53574:1 57540:1 57859:1 60178:1 61985:1 64049:1 64996:1 66006:1 67491:1 68167:1 71676:1 73004:1 75004:1 76732:1 77984:1 78025:1 78052:1 78070:1 78086:1 78124:1 78150:1 78188:1 78459:1 78640:1 78853:1 78987:1 79347:1 80154:1 80650:1 81135:1 81710:1 82289:1 86211:1 86775:1 89579:1 92934:1 95148:1 95552:1 108447:1 
179.7234670320923 0 0 207:1 2037:1 2564:1 3553:1 9134:1 9678:1 11909:1 11985:1 15655:1 18161:1 18327:1 22640:1 23474:1 23498:1 23517:1 23518:1 23692:1 25181:1 26417:1 26891:1 32194:1 32541:1 33603:1 35243:1 36629:1 37121:1 43010:1 43632:1 44489:1 44690:1 44987:1 45474:1 45962:1 46435:1 47368:1 47513:1 47593:1 47619:1 47715:1 47879:1 47953:1 48022:1 48191:1 49238:1 50144:1 50465:1 52589:1 53800:1 54209:1 56282:1 57859:1 62296:1 62728:1 63622:1 64473:1 65298:1 66006:1 68098:1 69191:1 70896:1 73004:1 76797:1 77348:1 77994:1 78015:1 78056:1 78070:1 78089:1 78121:1 78158:1 78197:1 78310:1 78693:1 78856:1 79025:1 79307:1 79766:1 80288:1 80501:1 81748:1 82471:1 83366:1 84989:1 86027:1 87669:1 89072:1 89579:1 95514:1 96123:1 
0 0 323.9810928647423 359:1 2135:1 3386:1 3787:1 7137:1 11957:1 13028:1 14890:1 15883:1 16206:1 18298:1 19539:1 21726:1 22910:1 23307:1 23474:1 23476:1 23498:1 23518:1 23859:1 25352:1 26734:1 27106:1 30304:1 33778:1 35420:1 36950:1 37336:1 40795:1 41434:1 44489:1 44690:1 44987:1 45474:1 45962:1 46636:1 47368:1 47513:1 47593:1 47653:1 47715:1 47879:1 47953:1 48022:1 49334:1 50343:1 50572:1 52302:1 54811:1 56433:1 58002:1 60436:1 64561:1 65471:1 66125:1 67464:1 69081:1 71199:1 73792:1 75002:1 77984:1 78017:1 78037:1 78070:1 78086:1 78141:1 78158:1 78188:1 78323:1 78527:1 78853:1 78997:1 79600:1 79770:1 80154:1 80514:1 80746:1 81720:1 82359:1 84433:1 85020:1 86205:1 87847:1 89395:1 89794:1 93244:1 94080:1 100348:1 102292:1 106419:1 
0 0 138.4682476289493 118:1 878:1 2955:1 4142:1 6763:1 10444:1 14866:1 15516:1 15755:1 16481:1 21693:1 22468:1 22875:1 23476:1 23498:1 23516:1 23518:1 23519:1 23520:1 23557:1 23585:1 24645:1 26142:1 27453:1 30014:1 33500:1 34685:1 36343:1 37683:1 40491:1 43046:1 44489:1 44690:1 44980:1 45353:1 46566:1 47513:1 47550:1 47653:1 47715:1 47860:1 47920:1 47964:1 48118:1 48920:1 49932:1 50691:1 52110:1 53355:1 55838:1 58230:1 60177:1 61682:1 63586:1 64276:1 65115:1 66266:1 67312:1 70308:1 72594:1 74841:1 77973:1 78015:1 78049:1 78070:1 78089:1 78125:1 78145:1 78177:1 78300:1 78593:1 78856:1 79029:1 79373:1 79653:1 80016:1 80491:1 80900:1 81752:1 82517:1 83699:1 84619:1 85928:1 87102:1 88758:1 90141:1 92933:1 95549:1 109165:1 
2000 0 1819.674568532405 487:1 1902:1 10903:1 12705:1 14742:1 17034:1 19117:1 21520:1 23474:1 23518:1 23533:1 23555:1 24010:1 24792:1 33929:1 34840:1 40213:1 44492:1 44724:1 45004:1 45502:1 46660:1 47513:1 47593:1 47653:1 47781:1 47850:1 48454:1 50212:1 51014:1 58713:1 63833:1 65436:1 66460:1 71875:1 73699:1 77974:1 78014:1 78062:1 78070:1 78080:1 78178:1 78286:1 78750:1 78847:1 80033:1 80477:1 81413:1 86353:1 87261:1 92669:1 99829:1 
53.49845280404072 0 0 2659:1 10015:1 10331:1 12908:1 14608:1 14952:1 19406:1 21347:1 21866:1 23476:1 23516:1 23517:1 23518:1 23527:1 23543:1 23548:1 23552:1 23555:1 26734:1 32974:1 33356:1 36950:1 40200:1 44091:1 44489:1 44515:1 44808:1 45248:1 46397:1 47478:1 47560:1 47619:1 47664:1 47846:1 48022:1 48812:1 50343:1 52878:1 54572:1 55715:1 63155:1 64458:1 65471:1 67816:1 69047:1 70047:1 76000:1 77705:1 77980:1 78018:1 78037:1 78070:1 78082:1 78122:1 78158:1 78184:1 78343:1 78528:1 78849:1 78966:1 79326:1 79769:1 80122:1 80534:1 80756:1 81689:1 82233:1 83472:1 85008:1 85791:1 89395:1 92658:1 96592:1 
0 680.4230161313534 0 7494:1 14952:1 15710:1 21866:1 22703:1 23518:1 23534:1 23541:1 30637:1 41160:1 44491:1 44935:1 45819:1 47053:1 47737:1 47879:1 47895:1 48022:1 51351:1 52521:1 52689:1 54719:1 59256:1 60703:1 60904:1 65660:1 67418:1 67617:1 68818:1 72760:1 75340:1 78070:1 78097:1 78141:1 78158:1 78864:1 79110:1 79600:1 79775:1 81833:1 82851:1 84436:1 85047:1 93631:1 
380.5644817328096 2000 850.1545076364033 3399:1 7140:1 10233:1 12439:1 15710:1 18880:1 22703:1 23518:1 23530:1 23534:1 23537:1 23541:1 23552:1 26748:1 30309:1 33244:1 33366:1 36965:1 40799:1 44368:1 44491:1 44543:1 44935:1 45162:1 45819:1 46508:1 47053:1 47481:1 47529:1 47653:1 47737:1 47879:1 47895:1 48022:1 50797:1 52306:1 52726:1 58391:1 60440:1 66227:1 67369:1 67594:1 72779:1 75074:1 77975:1 78035:1 78058:1 78070:1 78097:1 78141:1 78165:1 78179:1 78489:1 78719:1 78864:1 79110:1 79603:1 79868:1 80068:1 80680:1 81347:1 81833:1 82853:1 84459:1 85801:1 89414:1 93247:1 96881:1 
1.589107841976102 0 0 118:1 3399:1 7258:1 10233:1 12439:1 13554:1 18880:1 20133:1 23518:1 23530:1 23534:1 23537:1 23541:1 23585:1 26748:1 30420:1 33244:1 33500:1 36965:1 40927:1 44368:1 44491:1 44698:1 44935:1 45180:1 45819:1 46514:1 47053:1 47513:1 47529:1 47653:1 47737:1 47879:1 47895:1 48022:1 48118:1 50524:1 52393:1 52730:1 60535:1 60950:1 63586:1 65936:1 67420:1 67618:1 75152:1 77973:1 78035:1 78058:1 78070:1 78097:1 78141:1 78165:1 78177:1 78488:1 78719:1 78864:1 79110:1 79603:1 79868:1 80022:1 80679:1 81346:1 81833:1 82853:1 84459:1 85369:1 85928:1 89414:1 93378:1 96881:1 
1705.743487758781 0 0 5847:1 6972:1 8976:1 9632:1 10331:1 11237:1 11324:1 11647:1 15201:1 17424:1 17530:1 17917:1 22097:1 23518:1 23548:1 29156:1 30139:1 31934:1 32480:1 39386:1 40624:1 42735:1 43571:1 44489:1 44820:1 45645:1 46829:1 47664:1 47879:1 47953:1 48022:1 51531:1 52198:1 53625:1 54164:1 60290:1 62053:1 66570:1 67289:1 67934:1 68901:1 75035:1 76590:1 78070:1 78089:1 78136:1 78169:1 78856:1 79040:1 79529:1 79908:1 81763:1 82605:1 84223:1 85500:1 85785:1 91844:1 93063:1 95226:1 96057:1 
0 166.4850213782605 0 494:1 1867:1 5904:1 6849:1 10413:1 15755:1 16445:1 22875:1 23498:1 23518:1 23554:1 24006:1 24736:1 29185:1 30015:1 30874:1 33923:1 34781:1 35856:1 39415:1 40492:1 44489:1 44690:1 44987:1 45474:1 45962:1 46076:1 47368:1 47513:1 47593:1 47596:1 47715:1 47879:1 47953:1 48022:1 48459:1 51543:1 52111:1 52855:1 54347:1 55260:1 59511:1 60178:1 61037:1 62897:1 63766:1 65933:1 67491:1 68077:1 69370:1 69868:1 74394:1 75004:1 76608:1 77367:1 77994:1 78021:1 78042:1 78070:1 78086:1 78133:1 78158:1 78197:1 78370:1 78562:1 78853:1 78992:1 79483:1 79766:1 80285:1 80561:1 80842:1 81715:1 82326:1 84090:1 84975:1 86363:1 87198:1 88295:1 91873:1 92934:1 98960:1 99767:1 100826:1 104257:1 
1534.018519937205 0 470.423824284265 2876:1 5847:1 10331:1 10391:1 11770:1 16408:1 18059:1 23518:1 23522:1 23533:1 23548:1 23552:1 23555:1 26036:1 29156:1 33368:1 36243:1 39386:1 40213:1 44489:1 44560:1 44811:1 45428:1 46602:1 47482:1 47593:1 47653:1 47664:1 47850:1 49533:1 49839:1 51531:1 57079:1 64044:1 65024:1 66570:1 69977:1 71826:1 77978:1 78015:1 78052:1 78070:1 78080:1 78182:1 78303:1 78631:1 78847:1 80100:1 80494:1 81057:1 85802:1 88653:1 91844:1 92669:1 104234:1 
679.79419770318 0 193.6670868875199 290:1 1626:1 2707:1 7598:1 9804:1 10432:1 14066:1 14254:1 15753:1 16007:1 16466:1 20702:1 20923:1 22756:1 23062:1 23518:1 23785:1 24214:1 25802:1 30743:1 32696:1 33695:1 34243:1 36008:1 41274:1 43794:1 44491:1 44698:1 44935:1 45481:1 45828:1 46643:1 47090:1 47513:1 47593:1 47653:1 47737:1 47879:1 47953:1 48022:1 48281:1 49676:1 50897:1 52597:1 53456:1 56862:1 60802:1 63714:1 65186:1 66117:1 67305:1 68292:1 72261:1 74411:1 75371:1 76803:1 77989:1 78014:1 78061:1 78070:1 78089:1 78124:1 78155:1 78193:1 78291:1 78736:1 78856:1 79028:1 79351:1 79715:1 80240:1 80482:1 81390:1 81751:1 82497:1 83553:1 84756:1 86122:1 86657:1 88422:1 93745:1 96296:1 109785:1 
636.4774890721995 623.5947336439581 367.5215698886249 2981:1 7276:1 8387:1 10603:1 13546:1 13762:1 15134:1 16305:1 16655:1 20119:1 20364:1 21948:1 23423:1 23518:1 23521:1 23552:1 23553:1 26173:1 30437:1 30914:1 33353:1 33997:1 36378:1 40946:1 41682:1 44491:1 44502:1 44935:1 45125:1 45828:1 46490:1 47079:1 47475:1 47525:1 47653:1 47737:1 47879:1 47953:1 47988:1 49956:1 50879:1 52406:1 52890:1 54411:1 57205:1 58489:1 60550:1 61072:1 65332:1 65978:1 67204:1 68564:1 69229:1 71774:1 73365:1 74956:1 76217:1 77482:1 77977:1 78006:1 78050:1 78070:1 78089:1 78124:1 78159:1 78181:1 78233:1 78606:1 78856:1 79028:1 79355:1 79805:1 80090:1 80424:1 80962:1 81751:1 82501:1 83604:1 85177:1 85788:1 86430:1 88798:1 93397:1 94137:1 99052:1 101437:1 106620:1 
878.6165296560554 0 259.060176840311 290:1 1844:1 7354:1 13556:1 14244:1 20132:1 20904:1 23512:1 23518:1 23534:1 23556:1 23785:1 24665:1 26324:1 30503:1 33695:1 34703:1 36533:1 41017:1 41381:1 44492:1 44704:1 44889:1 45487:1 46648:1 47513:1 47593:1 47653:1 47743:1 47879:1 47891:1 48281:1 48925:1 50083:1 50543:1 52447:1 55850:1 57341:1 57967:1 60594:1 63714:1 64659:1 65441:1 65585:1 67405:1 70407:1 72277:1 75083:1 77989:1 78014:1 78052:1 78070:1 78089:1 78115:1 78193:1 78291:1 78630:1 78856:1 79021:1 80240:1 80482:1 81051:1 81744:1 86122:1 87124:1 93479:1 93864:1 99702:1 
0 349.2570674056946 934.2230833838981 129:1 2094:1 6868:1 9491:1 10432:1 11590:1 14608:1 15787:1 16466:1 17854:1 21349:1 22796:1 23500:1 23518:1 23520:1 23597:1 25289:1 30033:1 32292:1 33511:1 35357:1 40511:1 43378:1 44491:1 44698:1 44935:1 45481:1 45824:1 46643:1 47061:1 47513:1 47593:1 47653:1 47737:1 47879:1 47919:1 48022:1 49295:1 51735:1 52126:1 53704:1 54029:1 56365:1 59828:1 62177:1 64059:1 65523:1 66725:1 67155:1 68181:1 68834:1 70530:1 72107:1 72487:1 76090:1 77984:1 78017:1 78052:1 78070:1 78071:1 78125:1 78142:1 78188:1 78323:1 78633:1 78838:1 78880:1 79371:1 79613:1 80143:1 80514:1 81069:1 81603:1 81952:1 83678:1 84481:1 85940:1 87784:1 92954:1 95861:1 
1731.770134896743 0 66.01207357629475 487:1 1626:1 3286:1 15089:1 21958:1 23474:1 23512:1 23518:1 23533:1 23555:1 24010:1 24214:1 26592:1 33929:1 34243:1 36806:1 40213:1 44491:1 44671:1 44799:1 45461:1 46628:1 47513:1 47593:1 47653:1 47677:1 47850:1 48454:1 50254:1 51769:1 57578:1 59877:1 63833:1 65236:1 66073:1 71526:1 77974:1 78014:1 78052:1 78070:1 78080:1 78178:1 78286:1 78630:1 78847:1 80033:1 80477:1 81046:1 86353:1 86657:1 89248:1 92669:1 99308:1 
364.2811005001623 0 0 290:1 2027:1 4706:1 8545:1 9915:1 10718:1 11106:1 11905:1 14201:1 14682:1 16786:1 17268:1 18232:1 20854:1 21444:1 23475:1 23498:1 23518:1 23525:1 23785:1 25167:1 25842:1 28015:1 30583:1 31197:1 32845:1 33695:1 35228:1 36044:1 38245:1 41970:1 44489:1 44684:1 44844:1 45471:1 45664:1 46848:1 47513:1 47593:1 47653:1 47706:1 47879:1 47953:1 48022:1 48281:1 49713:1 50982:1 52482:1 53078:1 54481:1 58658:1 60649:1 61345:1 63042:1 63714:1 64983:1 66122:1 67301:1 68086:1 69243:1 73597:1 75038:1 76609:1 77485:1 77989:1 78014:1 78052:1 78070:1 78098:1 78124:1 78163:1 78193:1 78291:1 78630:1 78865:1 79116:1 79358:1 79839:1 80242:1 80482:1 81051:1 81839:1 82869:1 83615:1 85779:1 86122:1 87653:1 90703:1 94431:1 96465:1 100186:1 109884:1 
2000 0 1333.150067246306 487:1 7152:1 8389:1 10659:1 11128:1 12574:1 16715:1 17295:1 19026:1 23474:1 23517:1 23518:1 23553:1 24010:1 30322:1 30918:1 33929:1 33997:1 35986:1 40813:1 41685:1 43164:1 44489:1 44690:1 44987:1 45132:1 45962:1 46374:1 47368:1 47513:1 47525:1 47619:1 47715:1 47879:1 47953:1 48022:1 48454:1 50366:1 50686:1 52319:1 52895:1 57750:1 60453:1 61079:1 63833:1 65035:1 66125:1 67235:1 67865:1 72245:1 74414:1 75166:1 76269:1 77974:1 78006:1 78065:1 78070:1 78089:1 78132:1 78176:1 78178:1 78232:1 78812:1 78856:1 79036:1 79476:1 79997:1 80039:1 80423:1 81529:1 81759:1 82570:1 84070:1 85720:1 86353:1 86430:1 89437:1 93260:1 94140:1 95858:1 99077:1 101986:1 107700:1 
1526.761920681829 629.5017270763935 0 7644:1 9983:1 10339:1 14414:1 21110:1 23512:1 23518:1 23541:1 30786:1 32941:1 41320:1 41581:1 44057:1 44492:1 47731:1 47879:1 47895:1 48022:1 51493:1 54550:1 59433:1 69272:1 78070:1 78094:1 78141:1 78158:1 78861:1 79080:1 79600:1 79766:1 81803:1 82702:1 84430:1 84981:1 93797:1 94056:1 96558:1 
0 1609.193763252143 0 7503:1 8814:1 15134:1 21948:1 23518:1 23521:1 30654:1 31712:1 41179:1 42505:1 43314:1 44492:1 44912:1 45733:1 46917:1 47744:1 47879:1 47953:1 47983:1 51493:1 52528:1 54738:1 59433:1 60711:1 63407:1 65656:1 67143:1 68906:1 73549:1 75352:1 77773:1 78070:1 78097:1 78121:1 78172:1 78864:1 79097:1 79315:1 79975:1 81820:1 82756:1 83421:1 85668:1 93640:1 94983:1 96875:1 106853:1 108351:1 110212:1 
165.0025815593421 0 0 487:1 2027:1 23474:1 23475:1 23518:1 23533:1 23555:1 24010:1 25167:1 33929:1 35228:1 40213:1 44492:1 44724:1 45004:1 45502:1 46660:1 47513:1 47593:1 47653:1 47781:1 47850:1 48454:1 50226:1 51302:1 57545:1 59173:1 63833:1 65304:1 66573:1 71709:1 73082:1 77974:1 78014:1 78052:1 78070:1 78080:1 78178:1 78286:1 78630:1 78847:1 80033:1 80477:1 81046:1 86353:1 87653:1 92669:1 100190:1 
396.0964974309592 1263.197313135213 617.2829223704716 487:1 2027:1 2974:1 9073:1 9374:1 11808:1 11868:1 14912:1 15755:1 18111:1 18184:1 21755:1 22875:1 23474:1 23475:1 23501:1 23518:1 23521:1 23555:1 24010:1 25167:1 26161:1 32062:1 33038:1 33929:1 35228:1 36363:1 40208:1 42867:1 44153:1 44491:1 44698:1 44923:1 45481:1 45777:1 46643:1 46991:1 47513:1 47593:1 47653:1 47737:1 47847:1 47953:1 47983:1 48454:1 49946:1 50695:1 53712:1 54610:1 57198:1 62191:1 63218:1 63833:1 65382:1 65919:1 68262:1 68974:1 71711:1 73673:1 76690:1 77841:1 77974:1 78014:1 78050:1 78070:1 78074:1 78132:1 78159:1 78178:1 78286:1 78608:1 78841:1 78910:1 79467:1 79793:1 80030:1 80477:1 80966:1 81633:1 82099:1 84023:1 86353:1 87653:1 88786:1 92666:1 95390:1 96658:1 100190:1 101431:1 105593:1 108742:1 110027:1 
350.8490493717216 2000 0 9976:1 10339:1 12348:1 14353:1 18779:1 21035:1 23518:1 23526:1 23541:1 23555:1 32933:1 40210:1 41431:1 44049:1 44491:1 44924:1 45781:1 46999:1 47737:1 47848:1 47895:1 48022:1 51748:1 52713:1 54545:1 59843:1 60936:1 63116:1 66430:1 67749:1 68964:1 74325:1 75549:1 77693:1 78070:1 78078:1 78141:1 78158:1 78845:1 78946:1 79600:1 79769:1 81669:1 82191:1 84432:1 85000:1 92667:1 93924:1 96549:1 109972:1 
0 385.1676081141538 0 1199:1 7214:1 10329:1 10903:1 13644:1 14149:1 19543:1 20233:1 20786:1 23516:1 23518:1 23522:1 23546:1 23552:1 25159:1 30072:1 33368:1 35219:1 40554:1 41434:1 44493:1 44567:1 44899:1 45213:1 45706:1 46885:1 47482:1 47533:1 47749:1 47879:1 47953:1 48022:1 49218:1 51748:1 54690:1 56266:1 59843:1 63323:1 64568:1 66265:1 69350:1 70836:1 72473:1 77361:1 77978:1 78017:1 78070:1 78101:1 78141:1 78169:1 78182:1 78320:1 78868:1 79161:1 79607:1 79910:1 80115:1 80511:1 81884:1 83013:1 84461:1 85512:1 85802:1 87643:1 93326:1 94080:1 100169:1 106557:1 
0 1924.632270480075 0 7503:1 14517:1 15134:1 21218:1 21948:1 23512:1 23518:1 23534:1 23554:1 23556:1 30654:1 35866:1 41179:1 41381:1 44491:1 44671:1 44803:1 45461:1 45588:1 46163:1 47513:1 47593:1 47604:1 47677:1 47879:1 47891:1 48128:1 49427:1 52528:1 60711:1 63660:1 64525:1 65950:1 67143:1 69733:1 75352:1 77987:1 78015:1 78039:1 78070:1 78097:1 78115:1 78191:1 78307:1 78539:1 78864:1 79095:1 80214:1 80498:1 80788:1 81818:1 88305:1 93640:1 93864:1 106837:1 
461.4481351043434 95.64462684279596 0 2254:1 3173:1 10883:1 14194:1 14538:1 14762:1 16996:1 20842:1 21252:1 21550:1 23475:1 23518:1 23519:1 23520:1 23522:1 23535:1 23557:1 25597:1 26447:1 30490:1 31831:1 35679:1 36662:1 42630:1 43100:1 44492:1 44910:1 45723:1 47593:1 47653:1 47744:1 47860:1 47912:1 47967:1 48426:1 49481:1 50168:1 51011:1 52442:1 53556:1 57448:1 58710:1 60587:1 61953:1 63759:1 64735:1 65523:1 65660:1 67448:1 67829:1 69762:1 72107:1 72760:1 74977:1 76472:1 77985:1 78005:1 78049:1 78070:1 78099:1 78124:1 78150:1 78189:1 78224:1 78589:1 78866:1 79128:1 79347:1 80191:1 80415:1 80891:1 81851:1 82896:1 88106:1 89098:1 93463:1 95105:1 95552:1 101674:1 
384.3012910344972 0 0 487:1 2263:1 3038:1 10903:1 11383:1 17602:1 19543:1 23474:1 23518:1 23533:1 23555:1 24010:1 25612:1 25879:1 33929:1 35694:1 36088:1 40213:1 44494:1 44708:1 44893:1 45490:1 46651:1 47513:1 47593:1 47653:1 47750:1 47850:1 48454:1 49484:1 51011:1 56671:1 58710:1 63833:1 64785:1 66366:1 70934:1 77974:1 78014:1 78064:1 78070:1 78080:1 78178:1 78286:1 78773:1 78847:1 80033:1 80477:1 81456:1 86353:1 88123:1 88883:1 92669:1 100636:1 
1393.738677962962 795.1052824591968 675.1387373440731 345:1 2254:1 2795:1 7321:1 8370:1 10458:1 14031:1 14092:1 15134:1 16497:1 20728:1 22005:1 23475:1 23499:1 23518:1 23535:1 23557:1 23843:1 25597:1 25922:1 30474:1 30883:1 35679:1 36132:1 40987:1 41649:1 43100:1 44489:1 44690:1 44987:1 45474:1 45962:1 46636:1 47351:1 47513:1 47593:1 47653:1 47715:1 47879:1 47953:1 47967:1 48331:1 49481:1 50588:1 52432:1 52863:1 55108:1 58051:1 60578:1 61044:1 63742:1 64735:1 65645:1 67247:1 68199:1 69758:1 73726:1 75186:1 75896:1 77987:1 78005:1 78049:1 78070:1 78089:1 78124:1 78150:1 78191:1 78225:1 78589:1 78856:1 79028:1 79347:1 80208:1 80416:1 80892:1 81751:1 82494:1 85779:1 86188:1 88106:1 88542:1 93445:1 94105:1 95552:1 101298:1 106639:1 
0 287.1224333849628 0 320:1 7344:1 8390:1 9945:1 10660:1 13644:1 15757:1 16716:1 20233:1 20998:1 22762:1 23480:1 23516:1 23518:1 23554:1 23816:1 30496:1 30919:1 32891:1 33733:1 41008:1 41687:1 44001:1 44492:1 44705:1 44912:1 45356:1 45733:1 46920:1 47513:1 47550:1 47744:1 47879:1 47953:1 48022:1 48311:1 49255:1 51692:1 52895:1 55083:1 56304:1 59766:1 61079:1 63801:1 64294:1 67954:1 69889:1 70432:1 76234:1 77987:1 78017:1 78048:1 78070:1 78086:1 78124:1 78155:1 78191:1 78325:1 78585:1 78853:1 78987:1 79351:1 79733:1 80205:1 80516:1 80882:1 81710:1 82290:1 83564:1 84851:1 86158:1 93469:1 94141:1 96509:1 109917:1 
